tree
version=v4
num_class=1
num_tree_per_iteration=1
label_index=0
max_feature_idx=16
objective=binary sigmoid:1
feature_names=price ema_20 ema_50 rsi_14 bb_upper bb_lower macd_line macd_signal adx volume vol_ma20 cmf fib_0_618 entry tp sl is_doji
feature_infos=[50744.150000000001:111780.84] [51243.587203917843:109200.14044404041] [51482.689154798754:108239.35787861193] [12.98504765106415:90.979728842048331] [51864.762522399571:113453.37130083759] [48792.296393980592:107213.38541545685] [-3137.4418721828115:3365.5463056624867] [-2742.6015697503012:3073.7042920083591] [8.5174031748628423:61.932044086178095] [497.62159000000003:45415.568099999997] [1475.1440275:15682.417952] [-0.36960292709929465:0.46476362122147041] [51462.248:73058.360000000001] [50744.150000000001:73058.360000000001] [53281.357499999998:113453.3713] [48792.296399999999:71597.192800000004] [0:1]
tree_sizes=3383 3385 3380 3372 3373 3362 3364 3364 3374 3375 3371 3387 3393 3360 3371 3382 3365 3366 3396 3375 3365 3350 3388 3393 3384 3376 3383 3361 3380 3366 3367 3380 3397 3388 3392 3390 3382 3373 3371 3387 3368 3368 3377 3360 3389 3397 3393 3373 3384 3377 3376 3368 3413 3368 3386 3383 3384 3369 3397 3384 3383 3371 3356 3388 3362 3381 3367 3376 3367 3373 3406 3368 3380 3376 3377 3371 3378 3366 3378 3393 3393 3382 3387 3396 3356 3392 3381 3401 3356 3374 3367 3416 3380 3406 3383 3418 3360 3380 3372 3391

Tree=0
num_leaves=31
num_cat=0
split_feature=15 3 5 0 0 8 11 10 8 0 11 7 11 9 11 5 7 3 4 13 4 8 1 1 12 1 8 1 8 11
split_gain=54.8882 26.333 24.1456 19.3302 26.7649 25.7217 23.7348 23.1761 19.0662 22.7139 17.4637 17.1633 16.6672 13.8442 13.0308 12.951 20.1079 12.7935 12.3735 11.2782 11.1236 10.3092 10.2864 21.2049 13.8286 18.5451 17.3317 16.3581 15.2732 24.7564
threshold=56898.981300000007 36.736587138211569 102226.30361346476 74547.265000000014 83332.485000000015 21.327223477945477 1.0000000180025095e-35 6548.3865690000011 32.56678794182573 68391.675000000003 0.24593537302935817 198.93603194728345 0.078436620312959685 5684.6288100000011 -0.23955463183794964 67011.173128893322 376.31762559977807 58.620674237706503 67271.118337887994 55436.250000000007 108206.75431850507 26.82583898008296 100485.40523978676 98281.986460507338 71908.731000000014 94599.544046984141 22.231699124606539 97536.194029461374 17.480829523107513 0.0061749420008621369
decision_type=2 2 2 2 2 2 2 2 2 2 2 2 2 2 2 2 2 2 2 2 2 2 2 2 2 2 2 2 2 2
left_child=12 13 3 5 -5 15 7 -7 10 17 11 -8 -1 14 -2 16 -3 -10 -19 -14 22 -21 23 24 25 -6 28 -27 29 -26
right_child=1 2 -4 4 20 6 8 -9 9 -11 -12 -13 19 -15 -16 -17 -18 18 -20 21 -22 -23 -24 -25 26 27 -28 -29 -30 -31
leaf_value=0.10943497312231881 0.13479478081564217 0.062594696507386346 -0.090298167258102607 0.094777246053801417 0.099045949585881685 -0.13023528655722785 -0.042308812786576999 0.058843884266213974 0.016284874079206917 -0.18854768548595088 -0.15346514431751787 0.059560882483525819 0.1494425945424723 0.087438707046838648 -0.031025978727683694 -0.058937866721158312 -0.11662940222246872 -0.17071636900765472 -0.0012680427139465265 0.073907682097596919 -0.14542792862075099 -0.042653447574088982 0.04101794762997242 -0.10946271176093088 0.079454252941903836 -0.027972451500381051 0.021153622288663108 0.1494425945424723 -0.11436998773357918 -0.1194627849343612
leaf_weight=52.394377529621124 5.7755354642868033 50.978159219026566 42.031555086374283 30.779634892940521 26.858603060245514 49.036529421806335 27.353833109140396 7.4702138602733603 21.318819135427475 12.987788975238798 6.3926275968551627 41.832248538732529 5.9590876698493949 38.809996157884598 26.407599717378616 16.870857656002045 7.1363272070884696 10.158579587936403 7.4844500422477713 11.946647703647612 5.4511395990848532 20.796634882688522 46.902047544717789 19.714303225278854 14.370789527893068 40.637545585632324 45.061780095100403 5.9590876698493949 27.792118430137634 11.081086009740828
leaf_count=172 18 183 193 104 90 238 117 27 83 68 32 151 18 133 111 74 34 52 30 42 27 89 175 93 50 170 174 18 132 53
internal_value=2.72836e-08 -0.0102376 -0.0173243 -0.0115764 0.00690813 -0.0311734 -0.0512884 -0.105239 -0.0273834 -0.0740211 0.00467343 0.0192851 0.0726724 0.0472255 -0.00126804 0.0181945 0.0405864 -0.0358441 -0.0988337 0.0229041 -0.004184 -0.00012519 -0.00095408 -0.0112352 3.91484e-05 0.0328642 -0.0244881 -0.00528343 -0.0631159 -0.00714906
internal_weight=737.75 646.653 575.66 533.629 274.608 259.02 184.035 56.5067 127.528 51.9496 75.5787 69.1861 91.0967 70.9931 32.1831 74.9853 58.1145 38.9618 17.643 38.7024 243.829 32.7433 238.377 191.475 171.761 73.4552 98.3058 46.5966 53.244 25.4519
internal_count=2951 2630 2368 2175 1086 1089 798 265 533 233 300 268 321 262 129 291 217 165 82 149 982 131 955 780 687 278 409 188 235 103
is_linear=0
shrinkage=1


Tree=1
num_leaves=31
num_cat=0
split_feature=15 6 4 8 10 11 7 3 5 11 1 11 4 3 2 3 0 7 10 7 5 8 10 11 9 4 13 10 5 11
split_gain=44.5764 21.5005 23.6423 18.1067 13.7458 22.0617 20.0616 16.4098 24.9971 13.6279 13.2678 24.8786 17.5158 12.8549 14.1762 12.9649 23.3734 13.6845 13.2165 16.5541 12.3959 12.2646 15.1282 11.7416 12.4467 11.3459 10.9875 10.8785 11.2575 16.3385
threshold=56898.981300000007 -936.49316615144915 108206.75431850507 28.384245214268564 5341.6866960000016 -0.070089458504668731 -657.26805278302038 54.056141992926293 91470.953841893192 0.085716082471204921 61605.357496530611 0.060652053634887043 64115.822911023475 62.788332557215107 62658.907875209763 35.541851593578876 67039.005000000019 -187.98631089413314 2178.5794995000001 -572.22092164319633 102226.30361346476 49.139440036416644 5309.8092895000009 0.066214852288461995 5519.8428550000008 63342.166389471407 55436.250000000007 3150.0122137500007 93008.737634861332 0.1194935602602918
decision_type=2 2 2 2 2 2 2 2 2 2 2 2 2 2 2 2 2 2 2 2 2 2 2 2 2 2 2 2 2 2
left_child=9 23 3 4 10 -6 -7 -8 -9 -1 11 -3 25 14 -14 -16 -17 18 -18 -20 27 -5 -23 24 -2 -12 -11 28 -19 -30
right_child=1 2 -4 21 5 6 7 8 -10 26 12 -13 13 -15 15 16 17 20 19 -21 -22 22 -24 -25 -26 -27 -28 -29 29 -31
leaf_value=0.098043211419550871 0.0045497029110355717 0.12768879017909826 -0.10740183958817975 -0.046866257107760385 -0.12406823226607798 -0.13780524808641018 0.11151638263808324 0.065174210377348885 -0.11987949191203209 0.14674444518675864 -0.003902550034620548 -0.047726056866428099 0.1168604079257273 0.053871363915190998 0.068670768574951607 -0.11852896615576754 -0.13057883245859733 0.063280612334166736 -0.072764012062303485 0.078827770530039656 -0.15450729587888623 -0.078786869239079599 0.096446162571012739 -0.10678706191939105 0.096921039704657749 -0.18696096074767976 -0.003598579071781194 -0.050729669545735823 -0.10548812888801239 0.092530076111272272
leaf_weight=53.356307879090309 25.407278120517731 18.422201126813889 26.600025102496147 156.67507994174957 7.8724550753831855 5.2519532889127722 37.415297478437424 29.071353226900101 9.7468618601560575 5.7386897951364508 5.2333581745624533 14.409242600202559 7.4448432028293601 27.602387458086014 14.165213301777838 26.032191187143326 4.6898028254508963 21.998289078474045 9.1740220189094526 33.541068553924561 8.0708426535129529 7.6701253503561047 13.774111300706862 4.687263384461402 34.254806160926819 9.5903500169515592 31.786292135715485 67.560804545879364 12.931973949074747 6.1476178765296927
leaf_count=176 101 58 127 679 38 26 122 104 47 17 21 62 24 101 50 126 23 79 41 117 41 35 46 22 114 50 128 294 61 21
internal_value=-2.07206e-06 -0.00923475 -0.0153084 -0.0108904 0.00154092 0.0357909 0.0512352 0.0642588 0.0187091 0.0655686 -0.00912236 0.0507018 -0.0168495 -0.0103168 -0.0186837 -0.0236227 -0.0304982 -0.0165346 0.0287742 0.04627 -0.0349381 -0.0371583 0.0337692 0.0456115 0.0575844 -0.122334 0.0193934 -0.0260552 0.0145269 -0.0416849
internal_weight=736.322 645.441 581.091 554.491 376.372 89.3579 81.4855 76.2335 38.8182 90.8813 287.014 32.8314 254.183 239.359 211.757 204.312 190.147 164.114 47.4049 42.7151 116.71 178.119 21.4442 64.3493 59.6621 14.8237 37.525 108.639 41.0779 19.0796
internal_count=2951 2630 2393 2266 1506 337 299 273 151 321 1169 120 1049 978 877 853 803 677 181 158 496 760 81 237 215 71 145 455 161 82
is_linear=0
shrinkage=0.1


Tree=2
num_leaves=31
num_cat=0
split_feature=15 3 5 0 1 0 8 1 11 3 1 1 7 10 5 9 16 9 8 11 14 11 9 11 4 11 5 10 10 16
split_gain=36.3499 18.9106 16.2734 14.4313 21.5476 20.6962 16.729 14.9295 12.7336 16.4944 17.261 27.6346 16.7635 16.1547 10.6104 10.4863 10.4751 11.9795 10.1698 13.3259 10.1392 10.1024 9.97508 10.2063 9.71469 9.29695 8.14313 7.99962 12.9838 8.22271
threshold=57051.18510000001 36.736587138211569 102801.24215777863 74547.265000000014 68915.627972428483 83092.410000000018 19.78346751467836 68329.359269563647 0.046334531668990139 59.278585440165408 63820.452647290243 65136.346304066079 -504.4883186055817 5366.1875832500009 67011.173128893322 5421.1920650000011 1.0000000180025095e-35 2081.2321050000005 31.566218767659745 0.034961186836568743 68580.814800000007 0.078436620312959685 5684.6288100000011 -0.23955463183794964 70500.008239848758 -0.05545503702270075 61940.857510728274 4104.2634505000015 7103.3592755500003 1.0000000180025095e-35
decision_type=2 2 2 2 2 2 2 2 2 2 2 2 2 2 2 2 2 2 2 2 2 2 2 2 2 2 2 2 2 2
left_child=21 22 3 4 6 25 14 8 13 12 -11 -12 -10 -8 15 -3 17 -14 19 -6 -15 27 23 -2 -9 -5 -19 -1 29 -29
right_child=1 2 -4 5 18 -7 7 24 9 10 11 -13 16 20 -16 -17 -18 26 -20 -21 -22 -23 -24 -25 -26 -27 -28 28 -30 -31
leaf_value=0.17297711199601654 0.12012794799759521 0.087722857666413301 -0.083176765500519265 -0.035576147411901564 -0.16901175505786348 -0.0037017439248232331 -0.098111859871833185 0.16856605848844219 -0.11407813385149237 -0.14251034916780891 0.11161201565328951 -0.09683024175329169 0.11405365735994857 0.082554255759804976 -0.059838759381984512 -0.044754038108938549 0.10635084517334065 0.0083705589275556904 -0.16253251756531656 -0.0037221997601715319 -0.075489855429005798 0.020674897381248027 0.074807352767472232 -0.02703966772152315 0.0050624894504020107 0.11475334907428242 -0.16071555658520487 0.060788556806120289 0.13990838324287896 -0.062557946131649764
leaf_weight=9.0160557776689512 5.7379930019378653 29.874345287680626 32.548097163438797 5.0288939625024822 7.1157593876123455 255.01143084466457 53.082977280020714 5.5745258629322079 6.9346318691968909 15.497359514236448 10.966076970100405 15.14380046725273 6.1392327845096615 9.4907072335481661 8.9800093472003919 7.4688358008861533 19.343019917607307 7.2789626121520978 14.706260621547697 15.50721053779125 7.0930338203907004 40.218893080949783 38.369337663054466 26.366189196705818 10.438625872135161 22.609914928674698 4.6791751980781555 19.941731318831447 16.391633048653603 7.4138675928115836
leaf_count=25 18 101 153 21 37 1033 253 16 33 78 36 71 20 33 40 32 64 29 77 62 32 155 132 111 42 72 24 70 49 32
internal_value=-1.24929e-06 -0.0084772 -0.014514 -0.0103598 -0.0275929 0.00520667 -0.015571 -0.0299617 -0.0394209 -0.0136749 -0.0589072 -0.00928506 0.0287362 -0.0711965 0.0377575 0.0612268 0.055188 0.000503647 -0.097795 -0.0557119 0.0149572 0.058429 0.0403935 -0.000736342 0.0619816 0.0874008 -0.0577922 0.0872071 0.0695303 0.0273594
internal_weight=733.969 640.986 570.513 537.965 255.315 282.65 217.985 171.662 155.649 85.9823 41.6072 26.1099 44.375 69.6667 46.3232 37.3432 37.4404 18.0974 37.3292 22.623 16.5837 92.9822 70.4735 32.1042 16.0132 27.6388 11.9581 52.7633 43.7472 27.3556
internal_count=2951 2620 2359 2206 1080 1126 904 731 673 355 185 107 170 318 173 133 137 73 176 99 65 331 261 129 58 93 53 176 151 102
is_linear=0
shrinkage=0.1


Tree=3
num_leaves=31
num_cat=0
split_feature=15 6 4 8 7 3 10 11 3 4 1 11 4 11 11 8 10 7 3 2 6 4 7 11 5 5 5 10 8 11
split_gain=29.7579 15.2292 17.4165 13.2258 11.2121 17.296 14.9355 14.3614 12.0836 23.7058 10.4189 17.8182 14.9042 10.3472 9.50062 9.45457 11.305 9.44913 9.42681 12.3105 12.7432 16.4522 16.8777 11.2982 9.64483 9.96717 12.742 11.6138 10.5378 13.169
threshold=56898.981300000007 -936.49316615144915 108206.75431850507 28.384245214268564 -579.569297672424 42.359552372703604 5686.6687122500016 -0.070089458504668731 54.056141992926293 98347.540493299064 61605.357496530611 0.060652053634887043 64115.822911023475 0.054538193848287952 0.085716082471204921 49.139440036416644 5309.8092895000009 79.190371242183019 62.788332557215107 63309.065127571805 -445.380831250477 67662.474907049153 -192.1466349675147 0.075105773253970096 102226.30361346476 101866.18557326421 95195.744231195757 3055.8274140000008 17.735974022356199 0.087477600441216705
decision_type=2 2 2 2 2 2 2 2 2 2 2 2 2 2 2 2 2 2 2 2 2 2 2 2 2 2 2 2 2 2
left_child=14 -2 3 4 5 -3 10 -8 -9 17 11 -6 13 -12 -1 -5 -17 -10 19 -14 -21 -22 23 -23 25 26 27 28 -24 -30
right_child=1 2 -4 15 6 -7 7 8 9 -11 12 -13 18 -15 -16 16 -18 -19 -20 20 21 22 24 -25 -26 -27 -28 -29 29 -31
leaf_value=0.081449187088641878 0.038774545279093298 0.064548992913123618 -0.092330796585059979 -0.039959538886376676 0.11358363925405815 -0.1369371373547312 -0.12256291294871496 0.10147315319153905 0.17789957763047176 -0.13119929220583262 -0.1896518678734237 -0.032699817289786492 0.097848611500817403 -0.020538248913765031 0.015454710946781663 -0.066626018245337856 0.085580945272363707 0.030467218248194997 0.047480546629592724 0.046638788716061981 -0.13523101510850785 0.076663458675020529 0.099245877814282471 -0.085571975838384939 -0.13936366083180207 0.085716178407393637 -0.11431123376882678 -0.043528357963047153 -0.0974084232398858 0.09302721383795888
leaf_weight=52.320783764123917 63.889019042253494 6.2848778218030956 26.205868288874626 155.66816847026348 18.543216064572334 13.226617246866224 4.6501772105693808 33.31275400519371 5.7267099469900193 8.2001441568136197 7.6539755910634977 15.113198205828665 9.5771225243806821 6.8611828535795212 37.412386894226074 7.5956227332353619 13.647945195436476 18.045786246657372 29.584392696619034 26.240475729107857 13.249952599406241 24.683565288782123 12.968521326780321 5.1961908340454093 8.2857486605644208 7.2651987224817267 17.213241815567017 66.842065811157227 9.3341788947582227 5.9434079378843299
leaf_count=176 237 23 127 679 59 66 23 109 16 41 41 64 32 29 145 35 46 68 109 98 68 86 43 24 43 25 83 292 44 20
internal_value=-1.34862e-06 -0.00755163 -0.0126801 -0.00889127 0.00176513 -0.0720361 0.00582721 0.0472312 0.0593254 0.015411 -0.0043487 0.047896 -0.011357 -0.109713 0.0539342 -0.0314196 0.0311595 0.0659832 -0.00531739 -0.0128706 -0.0182471 -0.0282051 -0.0192146 0.0484502 -0.0350282 -0.0277979 -0.0351416 -0.02081 0.0329512 -0.0233236
internal_weight=730.742 641.009 577.12 550.914 374.003 19.5115 354.491 69.9356 65.2854 31.9726 284.556 33.6564 250.899 14.5152 89.7332 176.912 21.2436 23.7725 236.384 206.8 197.223 170.982 157.732 29.8798 127.852 119.567 112.301 95.0882 28.2461 15.2776
internal_count=2951 2630 2393 2266 1506 89 1417 257 234 125 1160 123 1037 70 321 760 81 84 967 858 826 728 660 110 550 507 482 399 107 64
is_linear=0
shrinkage=0.1


Tree=4
num_leaves=31
num_cat=0
split_feature=14 6 10 3 4 5 11 2 6 5 1 11 6 1 10 3 4 11 9 9 5 11 11 3 8 7 6 3 14 11
split_gain=24.441 22.7016 12.2795 13.7041 23.1076 16.3225 15.0097 12.5367 12.4374 12.3759 11.4046 14.0557 11.1272 11.4271 9.5165 9.45933 10.8398 10.3179 8.9102 8.47695 7.66703 19.1672 15.8587 12.4091 12.0815 10.4582 19.3318 12.0216 9.37438 8.42606
threshold=63448.435050000007 -1411.693897410081 5848.2442975000013 53.041290597577046 98347.540493299064 61940.857510728274 -0.010467104667064405 65931.460771424812 -134.78050638051351 59376.006705883519 98281.986460507338 0.067891351265485775 968.36026894124382 70290.951469142907 9235.6875012500022 33.848757359509328 108466.4691698895 -0.23143936746470123 9281.5696400000015 6805.7133250000006 81307.047022618077 0.06443715693200662 0.26127386184472906 37.849583616429264 35.210826938633652 -314.59622782092265 -223.25367798702425 49.798295624756513 67878.410400000008 0.27366749648517774
decision_type=2 2 2 2 2 2 2 2 2 2 2 2 2 2 2 2 2 2 2 2 2 2 2 2 2 2 2 2 2 2
left_child=-1 19 9 7 5 -5 -7 -4 10 -3 11 -9 -8 -14 -15 17 20 -11 -16 -2 21 23 24 -17 -23 -25 28 -28 -27 -22
right_child=1 2 3 4 -6 6 12 8 -10 15 -12 -13 13 14 18 16 -18 -19 -20 -21 29 22 -24 25 -26 26 27 -29 -30 -31
leaf_value=0.042674283305314809 -0.0021044998811334502 -0.12376592658948038 0.14601879292562991 -0.0989551211748739 -0.13734866523331851 -0.15179933539505619 0.099618100831154716 0.050196131490996936 0.083215704947453784 0.15185398867130179 -0.14934049320693815 -0.088719800496907364 -0.096063699326149804 0.10248759988927368 -0.10881920453286681 0.023068290863711441 -0.092600415721291032 0.0054113903172425875 0.065708106832898266 0.11304987594265195 -0.010389543858576752 0.040606456634993321 -0.1551264295164981 -0.14815307720550308 -0.061164640044921038 -0.059158321569079422 -0.14051331848554713 -0.043389245810921594 0.1225203003239555 0.073449601273007648
leaf_weight=113.27147154510021 9.2806830406188983 11.427702650427817 10.078296303749083 12.131830364465712 13.312774404883383 4.2654850780963889 21.080260932445526 26.730715811252594 24.24761800467968 6.1972672492265728 4.9503474831581107 10.011590674519537 8.1631979048252088 12.263098523020746 5.98831659555435 14.042300522327421 20.767885878682137 21.511834919452667 5.7188304513692856 20.542415305972099 183.81965993344784 52.490442633628845 5.7418296039104453 17.123993083834648 14.997465178370474 4.568775922060011 23.038509100675583 28.520530581474304 7.5062539130449295 12.823845908045767
leaf_count=417 37 57 30 57 68 22 70 97 84 18 26 46 38 40 28 55 103 85 20 65 761 198 30 91 70 21 119 127 25 46
internal_value=-3.21984e-06 -0.00788484 -0.0122342 0.0114753 -0.0166389 0.00644624 0.0286927 0.0421432 0.0262669 -0.0211099 -0.00685337 0.0123441 0.0431606 0.00612316 0.0409235 -0.0182705 -0.0223275 0.0381639 -0.0235643 0.0772149 -0.0183255 -0.0340113 0.0044166 -0.0636955 0.0179904 -0.0787821 -0.0601142 -0.0867879 0.0537794 -0.00492208
internal_weight=726.615 613.344 583.521 158.942 82.9238 69.611 57.4792 76.0186 65.9403 424.578 41.6927 36.7423 53.2137 32.1334 23.9702 413.151 385.441 27.7091 11.7071 29.8231 364.674 168.03 73.2297 94.8004 67.4879 80.7581 63.6341 51.559 12.075 196.644
internal_count=2951 2534 2432 626 343 275 218 283 253 1806 169 143 196 126 88 1749 1646 103 48 102 1543 736 298 438 268 383 292 246 46 807
is_linear=0
shrinkage=0.1


Tree=5
num_leaves=31
num_cat=0
split_feature=15 3 4 5 2 5 8 5 5 3 10 10 4 5 1 0 4 10 5 10 9 0 11 10 6 1 1 10 7 7
split_gain=21.5459 11.8387 10.0579 11.1218 17.5895 17.4991 14.6554 10.3383 8.80643 16.5899 9.71874 10.1638 9.65999 10.2839 11.4503 15.0615 12.0288 19.4186 9.18594 8.52932 9.69184 7.71844 7.70778 15.7489 8.88695 18.2513 19.3569 12.1818 9.93339 10.1536
threshold=57051.18510000001 36.736587138211569 108131.04309473194 73748.24469889274 80739.046133249212 67973.22557623063 21.123980196035447 57801.214579893829 93008.737634861332 41.729209065092384 3288.0226435000004 3753.4504710000001 106604.8616438512 102226.30361346476 100485.40523978676 102085.41500000002 97746.559798303104 2877.3872710000005 99051.585739552058 4092.0643137500006 2306.3074200000005 94593.35000000002 1.0000000180025095e-35 5366.1875832500009 675.4061880655064 63690.287702529517 65136.346304066079 7532.6846320000004 198.93603194728345 -60.370470593255099
decision_type=2 2 2 2 2 2 2 2 2 2 2 2 2 2 2 2 2 2 2 2 2 2 2 2 2 2 2 2 2 2
left_child=19 -2 3 5 -5 6 7 -3 9 -6 -11 -12 13 14 16 -16 17 21 -17 -1 -21 -10 23 -8 28 -26 -27 -28 29 -24
right_child=1 2 -4 4 8 -7 22 -9 12 10 11 -13 -14 -15 15 18 -18 -19 -20 20 -22 -23 24 -25 25 26 27 -29 -30 -31
leaf_value=0.12229632933548673 0.032397502550481648 -0.11828583654975418 -0.070582553369445744 0.15000954825400634 0.14204968444696592 -0.1053891613712995 -0.10030729145871385 0.036859856263806709 0.015434561408588166 0.054672031285479754 -0.097590179575191283 0.004886030917663025 0.040117849269256045 -0.11960017866160584 0.16925830140399453 0.090891039658234904 -0.061709498849972316 0.12642881901199315 -0.046689943228555103 -0.081244142391477744 0.044067681840020953 -0.16455195838554601 0.00058505663205575585 0.033884062307856268 -0.17071491450766965 0.10968146591087063 -0.099015533357384986 0.056590628988531622 0.046100237130359857 -0.10908124675206016
leaf_weight=12.476470291614531 69.410800620913506 4.6296504437923423 27.299966767430305 8.1728697270154935 10.267965376377104 23.627496942877769 33.847970753908157 59.432969689369202 4.848234951496126 33.918567508459091 11.167140275239943 72.604847073554993 25.23979264497757 11.114568307995794 6.4893225282430675 7.065054893493655 57.492044672369957 10.004918500781057 15.499535098671911 6.7530964016914359 71.71943236887455 4.6849249601364136 33.639500096440315 11.792968988418577 10.137981146574019 8.8426321446895582 20.433857798576359 6.6743321269750586 31.809440985321999 11.27130503952503
leaf_count=39 261 22 134 24 31 117 172 227 19 123 53 290 96 57 19 24 263 32 67 30 262 24 136 45 56 29 101 24 119 55
internal_value=-1.08412e-05 -0.00656538 -0.0113775 -0.00835472 0.00547456 -0.023395 -0.0150629 0.0256479 0.00110592 0.0201464 0.0095109 -0.00877446 -0.015999 -0.0280842 -0.018496 0.0349987 -0.0386729 0.0291138 -0.00361284 0.0454946 0.0332837 -0.073017 -0.0305455 -0.0656342 -0.0175051 -0.0522122 -0.0187949 -0.0607036 0.00334482 -0.026938
internal_weight=722.37 631.421 562.01 534.71 278.57 256.14 232.513 64.0626 270.397 127.959 117.691 83.772 142.438 117.199 106.084 29.0539 77.0301 19.5381 22.5646 90.949 78.4725 9.53316 168.45 45.6409 122.809 46.0888 35.9508 27.1082 76.7202 44.9108
internal_count=2951 2620 2359 2225 1122 1103 986 249 1098 497 466 343 601 505 448 110 338 75 91 331 292 43 737 217 520 210 154 125 310 191
is_linear=0
shrinkage=0.1


Tree=6
num_leaves=31
num_cat=0
split_feature=14 6 5 10 14 8 8 4 11 3 4 9 9 7 11 4 3 6 10 10 10 9 7 3 11 2 1 14 8 3
split_gain=17.7024 17.037 9.06928 9.57782 9.93397 9.40963 10.2525 10.9996 9.16563 12.2893 10.9153 8.84073 10.0707 8.03088 14.5814 10.6445 13.0537 11.2597 9.44703 8.81851 8.39467 8.45409 7.816 7.78149 7.74525 12.3582 24.0082 7.60359 7.5101 12.7945
threshold=63448.435050000007 -1411.693897410081 59376.006705883519 5341.6866960000016 68580.814800000007 24.208132647633345 48.226819889904426 71369.800455581266 -0.070089458504668731 53.499050044354171 98347.540493299064 4442.5539150000013 2896.3128500000003 -187.98631089413314 0.13078097697346844 67755.741721931772 40.412339668621904 -496.67080481063743 1974.9052485 2877.3872710000005 2620.0840552500008 1384.0459850000004 -642.22252181533588 63.611905932043406 0.085716082471204921 59288.722042908201 61899.809844429685 62758.198250000009 35.602647123446545 68.128576271221775
decision_type=2 2 2 2 2 2 2 2 2 2 2 2 2 2 2 2 2 2 2 2 2 2 2 2 2 2 2 2 2 2
left_child=24 -2 -3 13 -5 8 7 -7 -6 -10 23 12 -9 14 15 16 -4 19 -15 22 21 -20 -17 -11 -1 -26 27 -27 29 -22
right_child=1 2 3 4 5 6 -8 11 9 10 -12 -13 -14 18 -16 17 -18 -19 20 -21 28 -23 -24 -25 25 26 -28 -29 -30 -31
leaf_value=0.057134396487195073 0.067714210548953616 -0.079008906068370771 0.013225750061663367 0.061921478305778072 -0.086522351161735331 -0.12546666600564815 0.059618637678114296 0.0265272050154182 0.096577381271628779 0.079834165342795638 -0.078380013318388786 0.0046030907801997466 -0.1322532872960018 0.068826918134679463 -0.15332534604379344 0.13021694410046122 -0.14006839384104058 0.06722236513936726 0.00076153487647378105 -0.038114806743875469 -0.024757137854060123 -0.1195743287794292 -0.024703459209189059 -0.044744893204195488 0.046675343785165371 -0.18511798001132709 0.14262472658694716 -0.019690239974739215 -0.066354620831769018 0.064179226688365218
leaf_weight=69.32498462498188 29.224900886416435 18.722467601299286 14.331071987748148 31.182642951607704 6.2267599254846564 11.601991355419157 13.196825787425039 6.0255211591720608 23.726887345314026 16.385529890656475 11.138801917433737 44.215288564562798 11.850760862231253 9.9169383198022825 5.522651106119155 7.2843685299158096 9.0711405426263791 41.198546230792999 8.4059832841157931 28.252278387546539 172.421296864748 19.111836314201355 5.8897531777620298 7.2245181351900092 25.753693088889122 8.6366587728261965 4.2486310899257651 4.0962170809507361 35.772493302822113 17.850374862551689
leaf_count=248 102 90 58 112 30 58 47 24 79 56 55 179 61 36 29 23 52 148 35 123 749 97 25 31 94 45 13 17 170 65
internal_value=-1.87543e-05 -0.00677319 -0.0105491 -0.00825123 0.0105188 -5.46804e-05 -0.0215538 -0.03609 0.028817 0.0410989 0.00321753 -0.0193897 -0.0787335 -0.0173991 0.00509083 0.0133423 -0.046194 0.030205 -0.0269207 -0.00660881 -0.0306654 -0.0828148 0.0609567 0.0417138 0.036493 0.00300843 -0.0632156 -0.131899 -0.024317 -0.0164136
internal_weight=717.812 605.752 576.527 557.804 182.776 151.593 86.8904 73.6936 64.7025 58.4757 34.7488 62.0916 17.8763 375.029 111.55 106.027 23.4022 82.6249 263.479 41.4264 253.562 27.5178 13.1741 23.61 112.06 42.7352 16.9815 12.7329 226.044 190.272
internal_count=2951 2534 2432 2342 732 620 369 322 251 221 142 264 85 1610 458 429 110 319 1152 171 1116 132 48 87 417 169 75 62 984 814
is_linear=0
shrinkage=0.1


Tree=7
num_leaves=31
num_cat=0
split_feature=15 9 10 5 4 7 8 3 10 9 8 10 8 11 10 0 7 6 8 10 2 3 11 4 10 7 7 16 3 1
split_gain=15.4618 9.93085 15.6318 9.40031 8.60156 8.25244 11.3699 12.3774 12.2764 10.5287 9.30662 8.29798 9.11852 10.2431 12.5439 11.4462 8.10582 7.58891 7.32161 6.89671 18.6592 9.33104 8.36865 6.74712 6.34555 6.91205 8.65161 11.246 9.95927 10.477
threshold=56833.058550000009 1668.6051700000003 3374.3166137500007 103434.06413733833 111326.79387649579 -54.581157271908729 18.262026426229415 42.202582119342964 9974.8734531750033 5100.8202450000017 32.56678794182573 11089.0681886 47.452255551472227 0.076544068019706604 4995.2596135000013 67138.980000000025 -27.059392548394971 -565.0895786245236 12.224275245012306 5635.0237237500014 97969.539163379304 44.553418450917157 0.083589355912846677 95948.389851486121 4092.0643137500006 -657.26805278302038 13.75566797039671 1.0000000180025095e-35 57.546695000140843 56672.422314268122
decision_type=2 2 2 2 2 2 2 2 2 2 2 2 2 2 2 2 2 2 2 2 2 2 2 2 2 2 2 2 2 2
left_child=24 2 -2 5 -5 6 17 9 19 -8 16 12 13 -12 15 -15 -7 -3 -19 21 22 -9 -21 -17 -1 -26 27 -27 -28 -30
right_child=1 3 -4 4 -6 10 7 8 -10 -11 11 -13 -14 14 -16 23 -18 18 -20 20 -22 -23 -24 -25 25 26 28 -29 29 -31
leaf_value=0.1113802170592859 -0.0040521134028852889 -0.04228878608089931 -0.096393952515312603 -0.11742122900011492 0.034844685532924108 -0.12999573542439577 -0.0058679899367205662 -0.11733222534759975 -0.16291204980827129 0.060369673797322866 -0.13350068650842978 0.075964019457368304 0.019990799590867456 0.10611887042883027 -0.10128142452046059 -0.09901429716275266 0.0038105022660623374 -0.0061041435922057014 0.10857902893512963 0.084798643612052527 -0.1657721130126823 -0.012266663726742209 -0.046648318721303733 0.04602850531720195 0.074119849321123338 0.021219677920260263 0.12661561155078954 -0.150802479283591 0.13617519040438855 -0.024567281810551865
leaf_weight=10.817327126860617 48.659696951508522 5.5730843245983115 29.41312013566494 12.505828067660334 5.2748084962368003 4.6209028661251059 43.367509633302689 10.59132945537567 5.6827252805232993 53.727126017212868 16.416232973337173 5.8013180643320075 15.317874476313589 8.0572450309991854 18.011062398552895 8.4867666214704496 223.62432026863098 7.0942808389663687 25.855134353041649 21.687002584338192 4.4160239398479453 41.867594510316849 6.2361994683742514 5.1554882526397696 23.704862460494041 8.7250579446554166 9.0317244380712491 6.7332249730825415 4.9773720353841808 21.877315953373909
leaf_count=35 206 24 146 67 23 23 181 56 30 192 88 20 61 28 92 44 916 29 85 74 25 177 27 20 82 33 28 33 15 91
internal_value=-2.19535e-05 -0.00546845 -0.0388409 -0.000725771 -0.07225 0.00166658 0.0161494 0.00598698 -0.0206231 0.0307845 -0.00905237 -0.039055 -0.0483946 -0.067058 -0.0395908 0.0116138 0.00110155 0.0656329 0.0838868 -0.0110877 0.0252346 -0.0334791 0.0554421 -0.0442018 0.0397764 0.0294558 0.00883522 -0.0537087 0.0357764 0.00522547
internal_weight=713.31 627.443 78.0728 549.37 17.7806 531.589 226.098 187.576 90.4809 97.0946 305.491 77.246 71.4447 56.1268 39.7106 21.6995 228.245 38.5225 32.9494 84.7981 32.3392 52.4589 27.9232 13.6423 85.8669 75.0496 51.3447 15.4583 35.8864 26.8547
internal_count=2951 2634 352 2282 90 2192 900 762 389 373 1292 353 333 272 184 92 939 138 114 359 126 233 101 64 317 282 200 66 134 106
is_linear=0
shrinkage=0.1


Tree=8
num_leaves=31
num_cat=0
split_feature=15 9 4 7 4 8 9 10 11 2 2 10 7 1 10 7 10 11 8 1 0 6 7 7 6 8 12 8 10 7
split_gain=12.7596 8.10209 7.35723 6.82802 8.90523 10.7117 6.18377 14.3297 7.23402 12.3909 11.6654 10.2558 9.93397 13.996 9.83955 10.2082 12.4041 11.492 8.47926 8.15831 8.82865 7.48673 8.46369 7.84991 7.60458 12.6282 10.0767 8.50165 10.5986 7.44835
threshold=57051.18510000001 16321.905930000003 108206.75431850507 786.87657273726074 110926.1649262399 32.278603739157624 1668.6051700000003 3374.3166137500007 0.12840537571200233 61884.532185636977 59731.937051215464 8158.3072820000007 226.84887979987397 83410.411617372563 7395.8623527500013 -187.98631089413314 4557.8371312500012 0.11079178147360265 23.870197873492611 63820.452647290243 66876.210000000006 1226.1626853162236 767.62180325895213 454.88707282835679 249.05510278003933 19.697008043040125 71908.731000000014 17.829969390309838 4514.018381750001 113.12756883997453
decision_type=2 2 2 2 2 2 2 2 2 2 2 2 2 2 2 2 2 2 2 2 2 2 2 2 2 2 2 2 2 2
left_child=-1 2 6 4 5 -4 7 -2 10 -10 -8 12 13 18 15 16 -12 21 -11 -14 -21 22 23 24 27 26 -26 29 -29 -17
right_child=1 -3 3 -5 -6 -7 8 -9 9 11 14 -13 19 -15 -16 17 -18 -19 -20 20 -22 -23 -24 -25 25 -27 -28 28 -30 -31
leaf_value=0.035501847405454236 0.0033432394630606046 0.062961851145868358 -0.11417906467784703 -0.12608398318200745 0.099892843404973397 0.085731006070947802 0.1064518258475335 -0.088548652326337504 -0.13925747133035871 0.090422546272062587 0.043656846684169873 -0.087682148110576619 -0.087434037367311271 -0.1475938384002479 0.039844765677405407 0.040599328983847903 -0.019245531338506625 0.056849981321826074 -0.070662415113524099 0.11381277061555301 0.011350426604681794 -0.15231840525280479 0.024676985397108112 -0.089846084888001429 0.028606641868225847 0.071831066167461738 -0.18190728534667464 -0.097230878808996501 -0.00012643573505419234 -0.082232823349935383
leaf_weight=88.482239469885826 44.034756451845169 17.015503734350204 10.178180217742925 9.4890544265508634 4.540340080857276 3.6384844630956641 11.289740860462187 27.610480114817619 8.3070764094591123 6.4688622057437914 74.586865976452827 15.944427296519278 7.1078875958919516 10.119418248534201 61.101305335760117 18.182163521647457 54.080079361796379 17.537700831890106 6.603497102856636 9.6713564097881299 64.448564857244492 4.7363999038934699 28.307487219572067 22.170359700918198 4.6861810684204119 17.393741697072983 4.4170607775449753 33.037777259945869 17.036040797829628 6.7766395509243003
leaf_count=331 183 61 56 53 18 13 37 139 45 22 283 76 34 54 231 69 231 65 31 31 264 25 115 110 18 64 24 165 71 32
internal_value=-2.39847e-05 -0.00508977 -0.00700845 -0.0572101 -0.0216079 -0.0615347 -0.00458006 -0.0320699 -0.000672385 -0.0211341 0.00634214 -0.0129816 -0.00157519 -0.0592991 0.00323758 -0.00414567 0.0172183 -0.0199181 0.00905054 0.0149059 0.02472 -0.0285075 -0.0246496 -0.0359375 -0.0241659 0.0218882 -0.0735386 -0.0404294 -0.0641941 0.0072488
internal_weight=709 620.517 603.502 27.8461 18.357 13.8167 575.656 71.6452 504.011 128.671 375.34 120.364 104.42 23.1918 364.05 302.948 128.667 174.282 13.0724 81.2278 74.1199 156.744 152.007 123.7 101.53 26.497 9.10324 75.0326 50.0738 24.9588
internal_count=2951 2620 2559 140 87 69 2419 322 2097 557 1540 512 436 107 1503 1272 514 758 53 329 295 693 668 553 443 106 42 337 236 101
is_linear=0
shrinkage=0.1


Tree=9
num_leaves=31
num_cat=0
split_feature=14 6 5 0 4 5 10 10 3 4 1 0 5 7 11 1 10 8 0 14 14 11 11 3 3 7 8 7 10 10
split_gain=11.0383 11.5167 7.8747 6.65328 6.65245 6.78582 8.69743 6.49115 9.47843 13.2596 11.8252 10.8099 11.4263 10.513 10.2811 9.35981 11.2072 7.50583 9.45054 6.62159 10.2182 9.88947 10.5112 7.89106 7.80962 8.41193 10.8038 7.73329 11.0788 12.3092
threshold=63448.435050000007 -1469.848564049749 59376.006705883519 79874.005000000019 108206.75431850507 102296.49477840554 3121.1196987500002 5686.6687122500016 55.037549583987776 98347.540493299064 90543.454446310774 89111.37000000001 73748.24469889274 -517.4564586507064 -0.068750918649188406 94736.361962346258 9323.5522155000017 31.566218767659745 69720.49500000001 67615.215500000006 68664.171850000013 0.049409589065739515 -0.14039301655391725 39.376159977853156 55.14300068009166 665.51101737753345 24.443813091999058 -278.60406391135683 4633.5692690000005 2178.5794995000001
decision_type=2 2 2 2 2 2 2 2 2 2 2 2 2 2 2 2 2 2 2 2 2 2 2 2 2 2 2 2 2 2
left_child=-1 3 -3 -2 7 -6 -7 19 13 10 11 12 17 15 -15 16 -9 18 -10 21 -21 22 23 -4 -23 26 -26 28 29 -22
right_child=1 2 4 -5 5 6 -8 8 9 -11 -12 -13 -14 14 -16 -17 -18 -19 -20 20 27 24 -24 -25 25 -27 -28 -29 -30 -31
leaf_value=0.029147168586766123 0.11561615541781321 -0.072643647985919671 0.053454441263896126 0.013052606178020966 -0.16046210306179046 -0.089230329501324479 0.036923862187764209 0.063165106756826947 0.07600032106662262 -0.12808075377925746 0.14359090359657667 -0.14675720396028888 0.090588118015101984 -0.039764599812940706 0.081985543950605186 -0.12411853809543799 -0.069528178264477533 -0.074547403104162885 -0.062150430814433583 0.055851931748453133 -0.13553186356923858 0.099223807830456562 -0.10442773655624837 -0.11897310889292929 0.037453794299667248 0.064021495150002411 -0.13592780500757204 -0.019934239265383631 -0.072641971668681277 0.04789030336527425
leaf_weight=109.45528537034988 11.751013576984407 18.431355327367783 9.3004488348960859 13.697206050157545 4.9488082677125957 11.809450194239618 10.17234745621681 17.809680879116062 11.545678704977037 8.9250298142433149 5.4116192758083335 5.3229732662439337 11.45280024409294 8.2051172256469709 44.836325511336327 5.7834827303886405 9.9049544632434827 16.237552955746651 8.6699889004230482 25.729286164045334 3.9178277403116217 6.8711325824260738 28.151927620172501 3.7140260785818091 6.0243896245956448 7.4660154432058325 8.9082826972007734 203.71901746094227 11.213290348649023 55.312876150012016
leaf_count=417 38 91 34 53 29 66 44 63 40 49 16 27 39 38 155 31 46 77 39 99 21 23 149 21 23 28 46 891 53 205
internal_value=-3.91168e-05 -0.00540598 -0.00834557 0.0604125 -0.00619617 -0.0546685 -0.0308509 -0.00370703 0.0135394 -0.0145281 0.00275452 -0.0115639 0.00345785 0.0354531 0.0631517 -0.00840526 0.0157418 -0.0239166 0.016751 -0.0108838 -0.00440341 -0.0384751 -0.0700708 0.00424766 0.0059624 -0.0226469 -0.0659793 -0.0100582 0.0185027 0.0357578
internal_weight=704.699 595.244 569.796 25.4482 551.364 26.9306 21.9818 524.434 154.105 67.5656 58.6406 53.229 47.906 86.5396 53.0414 33.4981 27.7146 36.4532 20.2157 370.329 299.892 70.4362 41.1664 13.0145 29.2698 22.3987 14.9327 274.163 70.444 59.2307
internal_count=2951 2534 2443 91 2352 139 110 2213 620 287 238 222 195 333 193 140 109 156 79 1593 1269 324 204 55 120 97 69 1170 279 226
is_linear=0
shrinkage=0.1


Tree=10
num_leaves=31
num_cat=0
split_feature=14 6 9 14 11 2 1 10 10 9 14 5 7 1 4 4 5 10 4 9 10 10 12 4 5 10 4 4 11 11
split_gain=8.9969 9.51919 6.75088 7.34031 6.06709 8.28547 19.7501 6.66584 7.8195 6.61172 6.15458 6.05113 5.94945 5.67828 8.17792 5.48315 5.93141 7.26588 5.35212 6.04464 12.418 6.3551 7.73194 5.94215 6.03886 10.4639 7.43476 6.19414 5.8673 14.3282
threshold=63448.435050000007 -1411.693897410081 15664.402305000001 90039.383950000003 0.085716082471204921 59288.722042908201 61899.809844429685 4104.2634505000015 7223.2538422500011 3600.6575950000006 62758.198250000009 59376.006705883519 -1473.0863184748978 61947.643844540136 64846.262849362225 108206.75431850507 102296.49477840554 3121.1196987500002 107210.36381448132 1639.9097100000001 4132.9636907500017 2649.2495317500002 73039.260000000024 68301.796709081347 93541.334966856302 2816.3824417500005 69082.934717312412 89172.958674960959 -0.1438301145028317 -0.07413255412943677
decision_type=2 2 2 2 2 2 2 2 2 2 2 2 2 2 2 2 2 2 2 2 2 2 2 2 2 2 2 2 2 2
left_child=4 2 3 -2 7 9 10 -1 -9 -6 -7 13 -5 14 -3 18 -17 -18 19 20 23 -21 28 -13 25 -25 -27 -28 -23 -30
right_child=1 11 -4 12 5 6 -8 8 -10 -11 -12 15 -14 -15 -16 16 17 -19 -20 21 -22 22 -24 24 -26 26 27 -29 29 -31
leaf_value=0.084783654049584919 0.081313926556152993 -0.086073700278922652 0.13970994350554983 -0.11700753675615283 -0.044401208075787846 -0.16857873018475084 0.13011264403923237 0.0005927880474252017 0.11787352343034432 0.066978514275604084 -0.019187082783307358 -0.11136120356212426 0.035857492808154576 -0.15265240315372153 0.082513718738139938 -0.15193974076848382 -0.082928219581304252 0.032974715159732625 0.051703363275544534 -0.048317428669766897 -0.14508168447993278 0.036192317474120626 0.11452359434142881 0.11466514635724474 -0.047851991651519869 0.080840783296537044 -0.12919949022371899 0.021238597134917599 -0.06222990508361468 0.0026354544144959139
leaf_weight=25.883729159832001 10.958976373076444 8.4911173731088656 6.689962461590766 4.8356237858533886 7.6788859367370632 8.5399772971868533 4.1961853206157675 34.333274319767952 6.8130465745925894 17.421350225806236 4.0728932768106452 5.7852020710706702 5.3771463185548738 5.2179232537746421 4.3521421253681174 4.715693578124049 11.455025017261507 10.247304812073706 16.936997935175896 27.202410161495209 8.8229902088642103 40.236517772078514 5.9734173417091361 8.9871260821819323 17.905896186828613 5.0571207255125072 6.437811613082884 4.761021763086319 37.945277094841003 332.04864673316479
leaf_count=90 38 42 21 23 33 45 13 136 22 61 17 33 20 32 16 29 66 44 64 126 50 158 19 29 83 19 34 19 181 1388
internal_value=-4.14675e-05 -0.00491332 0.0521425 0.0244724 0.0263635 -0.00348191 -0.0578158 0.0450238 0.0200122 0.0329042 -0.120338 -0.007739 -0.0365223 -0.0646845 -0.0289452 -0.00585017 -0.0502893 -0.0282017 -0.00358421 -0.00545267 -0.0358821 -0.001489 0.00157163 -0.016193 -0.00343335 0.0280745 -0.0197972 -0.0652429 -7.30787e-05 -0.00401691
internal_weight=699.381 590.441 27.8617 21.1717 108.939 41.9093 16.8091 67.0301 41.1463 25.1002 12.6129 562.58 10.2128 18.0612 12.8433 544.518 26.418 21.7023 518.1 501.163 57.7572 443.406 416.204 48.9342 43.149 25.2431 16.256 11.1988 410.23 369.994
internal_count=2951 2534 102 81 417 169 75 248 158 94 62 2432 43 90 58 2342 139 110 2203 2139 267 1872 1746 217 184 101 72 53 1727 1569
is_linear=0
shrinkage=0.1


Tree=11
num_leaves=31
num_cat=0
split_feature=9 14 11 8 1 7 2 8 2 13 4 4 11 11 1 3 13 16 8 11 3 7 2 4 1 4 11 3 7 7
split_gain=7.91097 7.98071 6.14329 8.01543 6.58381 11.2097 6.8346 6.37269 8.28286 10.1396 8.36391 9.94898 7.34581 6.57153 8.89243 6.36939 6.56476 7.55448 6.20699 5.9559 5.98121 5.81092 5.38736 5.23761 5.08816 5.36769 5.06013 7.48011 10.0734 12.5018
threshold=23241.549316500004 63448.435050000007 -0.17256906417718493 38.534447781830316 63481.345515592649 -892.83179872462131 62487.380410953177 38.379515436605757 98954.491875862877 59613.675200000005 92340.598301931401 95808.90004610394 -0.07413255412943677 0.15954957818621252 67113.091947494089 39.998952988284941 58978.254100000006 1.0000000180025095e-35 22.587212368508087 -0.094153224672952687 33.173123907723848 394.16647297931155 85334.334243930571 65983.18128936291 103272.25474493699 99175.800722275322 0.085716082471204921 73.429771259301475 578.74519110276231 258.16944361859504
decision_type=2 2 2 2 2 2 2 2 2 2 2 2 2 2 2 2 2 2 2 2 2 2 2 2 2 2 2 2 2 2
left_child=1 26 3 -3 5 -4 -7 12 9 13 -11 -12 19 14 -9 -14 17 18 -17 20 -6 -19 -21 -18 25 -22 -1 28 29 -28
right_child=-2 2 4 -5 7 6 -8 8 -10 10 11 -13 15 -15 -16 16 23 21 -20 22 24 -23 -24 -25 -26 -27 27 -29 -30 -31
leaf_value=0.041080391719938707 0.10895722315500452 0.01269869905642575 0.050237463206690883 0.13400001979017545 0.062492184242278072 -0.043143516910059868 -0.13866316500689277 0.02071454076465026 -0.13425495640488522 0.077694318603186957 -0.12952796850475987 0.02204768992728148 0.057366242739330754 -0.16054195873429006 -0.11091131961143488 0.15683753739072326 0.090785598398783307 0.053698381616169966 0.039975883449315297 -0.16573166656741367 -0.036167956894547347 -0.092533600748125014 -0.040759719421615104 -0.004537050421455086 -0.11631180974195804 0.059904111403284527 -0.037980156097054171 0.10879498586731856 -0.16175715387843773 0.1050706988039299
leaf_weight=66.211323007941246 6.5954226851463309 38.982848942279816 10.647575512528418 6.3323726505041114 8.3234411478042585 33.939489811658859 9.6123218238353711 10.975772261619573 7.2827639877796164 13.088750481605528 6.2710837721824673 13.992269814014433 22.049333319067955 5.8981692045927039 9.6410545855760557 7.2434522211551693 5.8801014274358741 5.3502848148345965 12.200383886694906 5.4873655736446372 27.741404265165329 5.5221963822841644 9.2881578654050809 292.49885028600693 5.9114932417869559 7.3581080734729758 23.037162199616436 5.1683301031589499 4.3915597200393668 8.3141687214374524
leaf_count=248 22 159 40 20 30 164 54 43 39 46 31 55 83 34 55 21 22 20 48 32 130 26 43 1259 32 28 100 17 23 27
internal_value=-4.21015e-05 -0.00108604 -0.00570647 0.0296494 -0.00869443 -0.0417392 -0.0642257 -0.00497869 -0.0335586 -0.021309 0.0153855 -0.0248618 -0.000352642 -0.0674655 -0.0408377 0.0053364 0.00184617 0.0461824 0.0835106 -0.0314773 -0.0147969 -0.0205737 -0.0871721 -0.00265854 -0.0304832 -0.0160278 0.0239962 -0.00365321 -0.0199129 -4.40013e-05
internal_weight=695.237 688.642 581.519 45.3152 536.204 54.1994 43.5518 482.004 67.1499 59.8671 33.3521 20.2634 414.855 26.515 20.6168 350.745 328.695 30.3163 19.4438 64.11 49.3344 10.8725 14.7755 298.379 41.011 35.0995 107.123 40.9112 35.7429 31.3513
internal_count=2951 2929 2514 179 2335 258 218 2077 303 264 132 86 1774 132 98 1479 1396 115 69 295 220 46 75 1281 190 158 415 167 150 127
is_linear=0
shrinkage=0.1


Tree=12
num_leaves=31
num_cat=0
split_feature=15 3 0 1 7 7 4 3 1 11 2 5 7 10 8 8 11 3 11 3 11 5 10 6 5 5 2 9 0 11
split_gain=6.73411 5.10555 5.56596 13.2592 12.2518 12.2756 11.0398 8.68474 12.7913 10.5214 11.5629 9.95944 8.86299 8.14383 12.6425 8.93778 8.15583 6.81046 6.73928 6.32596 7.41704 8.24805 7.17239 7.21726 6.15174 5.56701 5.47944 11.2624 7.40256 6.22746
threshold=56833.058550000009 36.736587138211569 74547.265000000014 68915.627972428483 -504.4883186055817 -892.83179872462131 84809.005868658118 59.278585440165408 63820.452647290243 0.033922873471321786 62050.224427188841 61603.87303639076 442.27293704670723 4132.9636907500017 30.459483155631606 17.622273122230045 -0.040013085834300667 65.542212246746502 -0.12972358905650991 75.408002684356134 0.24593537302935817 102801.24215777863 2316.4635597500005 209.267486619945 57801.214579893829 103727.50735217689 103593.32179120576 2277.3577250000003 103731.22000000002 0.14361142529072049
decision_type=2 2 2 2 2 2 2 2 2 2 2 2 2 2 2 2 2 2 2 2 2 2 2 2 2 2 2 2 2 2
left_child=-1 -2 3 4 5 -3 -4 9 -9 10 -6 -10 -13 15 16 -12 18 -14 -15 20 21 26 -23 25 -11 -24 28 -28 29 -8
right_child=1 2 6 -5 7 -7 19 8 11 24 13 12 17 14 -16 -17 -18 -19 -20 -21 -22 22 23 -25 -26 -27 27 -29 -30 -31
leaf_value=0.026938262319623547 0.022340900674767371 0.025779847844694833 0.075657227506270838 -0.075834664739979407 0.07712227082319538 -0.11171358593443942 0.0098427561634109734 -0.094027727627437274 0.13310683232373929 -0.048628558453429865 0.014997748134036615 0.050854063566493524 -0.0057737755903544616 0.10316560705475329 0.1447547033000893 -0.13359928943382132 -0.11978083626615332 -0.1173854216415135 -0.044375064212826269 -0.10958543017296124 0.058251465985909134 -0.13573040019890534 -0.059277485006435475 -0.10316303590096038 0.056024305826324922 0.086244654385449246 -0.036318121664755246 0.12850336642622157 -0.068354244858131769 -0.037548017391601837
leaf_weight=81.584235012531281 67.219964116811752 9.5325285494327563 19.159426674246788 34.233159631490707 10.999742671847342 20.368015453219414 163.61850583553314 20.353144437074661 5.1513928920030585 6.2464592456817618 5.8848863095045116 12.703116208314894 12.707292884588243 5.0270228087902096 4.8512628227472296 12.965726166963575 7.2732256054878262 9.5953515619039518 8.0592623800039274 5.4395885467529288 19.817883595824242 8.2393619567155856 4.4025444686412829 6.8744485527276984 55.729178979992867 6.5250836759805679 7.4217360317707088 9.392149016261099 16.278393313288689 33.386236801743507
leaf_count=317 262 38 69 176 39 106 672 110 16 28 24 47 58 18 16 79 40 50 40 27 77 49 23 41 208 27 34 30 80 150
internal_value=-4.26506e-05 -0.00365442 -0.00687701 -0.0181754 -0.00866044 -0.0678796 0.00220819 0.0013126 -0.0294461 0.0172155 -0.0145945 0.00328627 -0.0158179 -0.0374912 -0.000315911 -0.0872095 -0.0348833 -0.0537929 0.0123019 -0.00279274 -0.000687668 -0.00524789 -0.0585889 -0.0228854 0.0454765 0.0276164 0.000789024 0.0557503 -0.00354377 0.00181148
internal_weight=691.04 609.456 542.236 241.681 207.448 29.9005 300.555 177.547 60.5103 117.037 55.0611 40.1572 35.0058 44.0614 25.2108 18.8506 20.3595 22.3026 13.0863 281.396 275.956 256.138 26.0414 17.8021 61.9756 10.9276 230.097 16.8139 213.283 197.005
internal_count=2951 2634 2372 1093 917 144 1279 773 281 492 256 171 155 217 114 103 98 108 58 1210 1183 1106 140 91 236 50 966 64 902 822
is_linear=0
shrinkage=0.1


Tree=13
num_leaves=31
num_cat=0
split_feature=9 4 7 6 10 15 15 9 6 8 9 3 6 4 2 11 7 3 0 0 2 9 10 0 10 11 11 0 1 4
split_gain=6.66103 5.92062 5.09378 9.06002 8.07969 10.5055 8.98457 6.41051 6.19658 7.23567 12.3742 5.04957 4.52472 4.25105 4.21756 6.88097 5.70894 6.65393 4.26396 4.14367 5.51466 3.61053 7.597 4.47683 4.16456 3.75797 4.29718 3.65534 12.6537 9.95292
threshold=23241.549316500004 63284.361796994031 47.04437790390498 117.88056725102798 3738.0247545000007 56721.627550000005 51298.222000000009 3422.0349700000002 95.631948876813127 21.912125367926787 3422.0349700000002 46.333068844913832 -1411.693897410081 62206.405604319887 61805.12154308243 0.18154702873994669 1155.525811195552 58.620674237706503 108729.22000000002 79874.005000000019 94811.428093438895 1298.4528750000002 2742.0279097500002 68246.670000000013 2272.2241755000005 0.011425727660070174 -0.046846851129952821 74547.265000000014 69080.200174753103 84809.005868658118
decision_type=2 2 2 2 2 2 2 2 2 2 2 2 2 2 2 2 2 2 2 2 2 2 2 2 2 2 2 2 2 2
left_child=1 2 3 4 13 6 -6 -8 -4 10 -10 -7 19 -1 15 16 17 -14 21 -3 -21 22 24 -24 -16 26 -25 28 -23 -29
right_child=-2 12 8 -5 5 11 7 -9 9 -11 -12 -13 14 -15 18 -17 -18 -19 -20 20 -22 27 23 25 -26 -27 -28 29 -30 -31
leaf_value=0.036069872635858452 0.10152337851096481 0.08266188975172778 0.13053717361365805 -0.1280560966243241 -0.090487234151422014 -0.028801914017841435 -0.027906476068195796 0.08323850097063612 0.059289797663685362 0.078063726280024712 -0.11442064023941348 -0.17207381392906576 0.014498248710430968 0.1454198574722611 -0.045704981024672395 -0.1598129047365017 0.075562837828372684 -0.1309117212200484 -0.081204700851375378 -0.063557006775574729 0.060847679660294501 -0.00123067645754421 0.0018266746295153879 -0.11614087726338268 0.0733178503733143 -0.15890245267090797 0.015985689538989854 0.078024222741764196 -0.068702827594771212 0.00086207798307339856
leaf_weight=9.6874077022075635 6.3951816707849494 10.98791326582432 7.5592413395643225 4.8523523062467566 5.8724152296781567 5.0279941856861097 7.6377814859151867 16.187991082668304 9.4635666757822055 16.036373734474182 7.2365229129791251 4.8164893537759781 6.5273992419242912 5.6162513345479956 4.7650302946567518 4.5191372334957114 4.5038208067417136 6.0765344500541687 7.2460314035415641 6.8702249675989133 7.4025910943746567 181.97280614823103 6.3124885857105282 5.7680143415927905 7.6743568331003189 6.1653257459402075 4.2940035313367844 17.874397620558739 32.80589348077774 258.01898734271526
leaf_count=38 22 40 24 24 27 22 32 56 36 57 35 26 27 17 22 28 17 37 44 30 27 792 30 32 28 36 18 64 169 1094
internal_value=-5.72806e-05 -0.00101292 0.0214593 0.0029163 0.0145037 -0.00937381 0.0203023 0.047609 0.0489309 0.0300871 -0.0159828 -0.0988988 -0.00488866 0.0761999 -0.00677415 -0.0500649 -0.0210742 -0.055606 -0.00501726 0.0365018 0.000965441 -0.00396702 -0.0350074 -0.0696285 0.027725 -0.0974248 -0.0597554 -0.0017542 -0.0115366 0.00586121
internal_weight=686.175 679.779 99.9944 59.6987 54.8463 39.5427 29.6982 23.8258 40.2957 32.7365 16.7001 9.84448 579.785 15.3037 554.524 21.6269 17.1078 12.6039 532.897 25.2607 14.2728 525.651 34.9792 22.5398 12.4394 16.2273 10.062 490.672 214.779 275.893
internal_count=2951 2929 394 242 218 163 115 88 152 128 71 48 2535 55 2438 109 81 64 2329 97 57 2285 166 116 50 86 50 2119 961 1158
is_linear=0
shrinkage=0.1


Tree=14
num_leaves=31
num_cat=0
split_feature=9 3 4 16 3 3 2 2 7 0 9 10 5 9 11 7 8 6 7 3 16 9 10 8 2 5 10 0 2 8
split_gain=5.78043 5.58586 4.78214 7.03449 6.39821 6.10838 4.44809 5.4442 8.53107 3.65982 3.77498 7.28091 11.046 5.92851 5.06442 7.73449 4.05815 11.4588 11.6223 6.03283 6.50454 6.58278 5.43069 9.24996 7.99224 9.14419 8.55008 10.3545 6.89617 18.993
threshold=17117.359675500004 50.626328264914513 59042.848883758685 1.0000000180025095e-35 54.757669006231204 45.283738493485068 58258.527890734076 59261.571927772005 -27.059392548394971 108729.22000000002 1706.2000800000003 2877.3872710000005 93541.334966856302 1431.0127150000001 0.1127879341375298 -323.59288957439537 18.493291313501462 111.23482411689839 641.26306175881507 51.349349521735441 1.0000000180025095e-35 3790.0427550000004 2407.2032512500004 26.971397346546631 103005.37157561143 93008.737634861332 3483.1957540000008 104868.77 87719.092733745842 30.459483155631606
decision_type=2 2 2 2 2 2 2 2 2 2 2 2 2 2 2 2 2 2 2 2 2 2 2 2 2 2 2 2 2 2
left_child=2 -2 3 5 -5 -1 -4 8 -8 10 11 12 -9 14 15 -14 17 -12 19 -19 21 -21 23 -18 25 28 27 -26 -24 -30
right_child=1 -3 6 4 -6 -7 7 9 -10 -11 16 -13 13 -15 -16 -17 22 18 -20 20 -22 -23 24 -25 26 -27 -28 -29 29 -31
leaf_value=-0.012255057300823505 0.099397009789862656 -0.0065560357597756434 -0.070465318681714462 0.046055777935616292 -0.11418819834835373 0.11512390773506548 -0.059457957906263528 0.084569156358347775 0.10198274518892608 -0.075784165446093954 0.045901443233569664 -0.048907003912523117 0.046396451513338953 -0.11763862617192936 0.10388880650688999 -0.13856022642867982 -0.12715831925453652 -0.14919393718226079 0.074247402208848332 0.05815484802141932 -0.10103544934096027 -0.077441838782325967 -0.0047822720290188331 0.040947944054837565 0.094779428798475285 -0.040770376823873619 0.12928275214692281 -0.10132602393661919 0.089768457106334465 -0.035382252107616918
leaf_weight=5.3990395963192013 11.282484933733942 8.9015778452157956 9.7477269917726499 5.3813605606555956 4.6402338147163391 12.436712890863417 4.6038532704114923 12.899024575948717 11.325224131345745 7.0009208470582953 59.432487517595291 46.220432505011559 5.0444414317607897 5.9998463392257682 3.5740655809640876 4.097468763589859 8.8974264636635763 5.4831324964761761 9.1866576820611936 9.4392536133527738 8.8679673671722412 5.7679750025272378 280.99198137223721 5.1781343519687644 5.489248603582384 61.32090562582016 9.3500045984983426 5.2844789326190948 28.080662727355957 21.342903405427933
leaf_count=22 40 37 45 20 22 41 20 46 39 44 225 233 20 33 13 22 52 29 34 36 45 28 1233 21 19 282 31 30 97 92
internal_value=-4.83861e-05 0.0526696 -0.00165456 0.0388975 -0.028141 0.0765652 -0.00343462 -0.00238898 0.0553228 -0.00389862 -0.00306256 -0.0236121 0.0133687 -0.035703 0.00295718 -0.0365024 -1.07814e-05 0.0183173 -0.0239951 -0.0545286 -0.0329685 0.00672416 -0.00423538 -0.0653152 -0.00214794 -0.00530525 0.0593134 -0.00140967 0.00127663 0.0357238
internal_weight=682.668 20.1841 662.484 27.8573 10.0216 17.8358 634.626 624.878 15.9291 608.949 601.948 77.8353 31.6148 18.7158 12.716 9.14191 524.113 98.1775 38.745 29.5583 24.0752 15.2072 425.936 14.0756 411.86 391.736 20.1237 10.7737 330.416 49.4236
internal_count=2951 77 2874 105 42 63 2769 2724 59 2665 2621 367 134 88 55 42 2254 397 172 138 109 64 1857 73 1784 1704 80 49 1422 189
is_linear=0
shrinkage=0.1


Tree=15
num_leaves=31
num_cat=0
split_feature=3 11 2 10 8 8 5 5 4 8 11 11 7 11 5 3 7 11 3 3 9 7 7 6 3 8 1 5 11 14
split_gain=5.33511 8.12919 5.14084 5.85353 5.1829 6.1957 5.7833 5.71906 5.5203 5.60625 7.81684 9.54853 17.0112 6.77231 6.52507 7.43283 7.81346 13.1491 8.0387 9.60027 6.1311 5.85205 5.78822 8.81809 7.03636 5.95856 9.036 6.3955 8.84894 6.74771
threshold=33.472850842346695 -0.23955463183794964 106183.81298068781 3576.9089402500003 56.504802667515413 53.305897574101103 50625.313379243649 51113.634892372778 58631.025777572228 28.384245214268564 -0.16380123980671146 -0.052728996705238916 -892.83179872462131 -0.22666278422906025 101988.84866501349 58.95156595040293 -342.72017470050827 0.079502646130766352 46.333068844913832 54.757669006231204 1576.1101350000001 -1288.9083309966393 653.90717327559571 788.69413146593445 62.157292702596401 32.027017530111628 92218.039439448708 73748.24469889274 0.19797923736907055 68580.814800000007
decision_type=2 2 2 2 2 2 2 2 2 2 2 2 2 2 2 2 2 2 2 2 2 2 2 2 2 2 2 2 2 2
left_child=1 -1 4 -4 5 6 -2 -8 -9 13 -11 12 -12 -10 15 16 17 21 -18 -20 -15 -13 -17 -24 -25 -26 27 28 29 -27
right_child=2 -3 3 -5 -6 -7 7 8 9 10 11 14 -14 20 -16 22 18 -19 19 -21 -22 -23 23 24 25 26 -28 -29 -30 -31
leaf_value=0.12404489248548163 0.096293261929980944 0.013536884827544364 -0.092101564470191549 0.043390042967593752 -0.078122323230173735 0.080820225191730155 -0.11399097828581005 0.070061314539150474 -0.087005467984433427 0.062247786797630378 0.040267257569525705 0.072369010293343625 -0.12267665404344751 -0.029091068351110506 0.11323206750729793 -0.091615837516410475 -0.069689518944737447 -0.10195774335863282 0.11940353648488136 0.0071233897670393738 0.011221815032460225 -0.019933057299787907 0.090218851782340098 -0.13526454345553146 0.039053499803611252 0.064586171311793145 -0.13281843008648464 0.066084227421504535 -0.15633590532782482 -0.072492900958727
leaf_weight=8.0448405444622022 6.0309333056211463 38.578670620918274 12.387099370360376 4.293810471892356 8.5842306762933713 9.3684923350810987 4.5355041772127143 10.653667882084845 7.9016548097133628 11.964040100574492 9.2416374683380145 11.352352902293203 20.889232397079468 42.660990834236145 4.1005893349647513 15.470605775713919 5.5367512404918662 13.895715042948721 14.712040647864344 15.786326736211775 326.18904113769531 17.392234742641453 6.1706571131944647 6.3033286705613127 11.712308064103125 7.1889044195413643 8.5395105928182584 7.1763001233339301 5.1808625012636176 7.1750699579715729
leaf_count=26 21 154 75 19 42 35 22 38 40 46 35 41 117 204 16 79 30 71 50 67 1365 74 25 37 46 31 46 27 34 38
internal_value=-4.05006e-05 0.0326049 -0.0024473 -0.0572249 -0.000963264 0.000127692 -0.00113697 -0.00212999 -0.00126597 -0.002584 -0.0161254 -0.0211176 -0.0726991 0.00459691 -0.0112618 -0.0145856 0.00688107 -0.0220894 0.0411617 0.061286 0.00655925 0.0165206 -0.037129 -0.0229492 -0.0360567 -0.0227439 -0.0432708 -0.0146533 -0.0442978 -0.00388735
internal_weight=679.017 46.6235 632.394 16.6809 615.713 607.129 597.76 591.729 587.194 576.54 199.788 187.824 30.1309 376.752 157.694 153.593 78.6754 42.6403 36.0351 30.4984 368.85 28.7446 74.9175 59.4469 53.2763 46.973 35.2606 26.7211 19.5448 14.364
internal_count=2951 180 2771 94 2677 2635 2600 2579 2557 2519 910 864 152 1609 712 696 333 186 147 117 1569 115 363 284 259 222 176 130 103 69
is_linear=0
shrinkage=0.1


Tree=16
num_leaves=31
num_cat=0
split_feature=9 14 11 10 10 5 2 1 9 15 4 5 15 9 3 7 5 3 4 3 11 3 6 13 10 14 4 9 0 9
split_gain=4.83414 4.12728 4.08664 5.33513 5.70161 4.4598 4.35775 14.035 4.43912 4.2535 9.9481 10.5286 4.0429 3.97228 8.43559 13.3538 7.99736 6.93592 5.62771 5.36528 5.88863 5.194 5.03414 5.03022 8.04346 4.6212 4.61991 4.47507 7.34581 6.37918
threshold=23241.549316500004 63448.435050000007 0.085716082471204921 4104.2634505000015 7223.2538422500011 59808.369601039296 59288.722042908201 60360.152097705672 3600.6575950000006 52832.118150000009 58631.025777572228 56419.020206637877 56736.200750000011 4935.5345700000007 42.438186294045117 -572.22092164319633 85512.02253223554 54.757669006231204 65810.47468396365 50.445815471436212 0.27366749648517774 44.553418450917157 102.25127169774352 68155.006100000013 6419.5491267500011 63748.39680000001 71506.02444699817 3790.0427550000004 68192.065000000017 4558.7241400000012
decision_type=2 2 2 2 2 2 2 2 2 2 2 2 2 2 2 2 2 2 2 2 2 2 2 2 2 2 2 2 2 2
left_child=1 2 3 5 9 -1 8 -8 -4 -5 -11 -12 -13 25 18 21 19 -18 -15 22 -21 -16 26 -19 -25 -3 -17 -27 29 -29
right_child=-2 13 6 4 -6 -7 7 -9 -10 10 11 12 -14 14 15 16 17 23 -20 20 -22 -23 -24 24 -26 27 -28 28 -30 -31
leaf_value=0.096042343862755453 0.089523152718893023 -0.10857400524370915 -0.043371154980556832 -0.090466058564211985 0.1000884402627697 -0.0014560658245029094 -0.14792101521916221 0.03996730259645509 0.049976553204921392 0.13300089622058892 -0.12731872363301577 0.093283186896953876 -0.011967691493789998 -0.036868451019660638 -0.012129066501889975 -0.079161409551751924 0.083669369257865764 0.084128571967828358 0.045113645959938817 0.007740279552312399 -0.086989102557539291 -0.13389063828918818 -0.1532194734857322 0.01026519640051405 -0.15494439405106933 -0.0038758865314966751 0.055926987480649483 0.046491825906368037 -0.056258563685128084 -0.076171610045935034
leaf_weight=17.771869927644733 5.9719147831201544 4.7619722411036483 7.5223776847124126 5.0261986404657355 6.0154582411050788 6.3743630796670905 7.4733995348215094 8.4946644753217679 15.783154010772703 5.2874629646539715 6.4597345441579845 5.5037360787391689 10.833044558763502 9.6553227305412275 5.2101634889841071 6.9767356142401677 18.860167153179646 5.7863008677959469 63.058598458766937 60.007528245449066 7.3678409680724135 10.694079428911207 4.7714211940765372 14.747473716735842 3.6828875690698615 280.82849366217852 3.9734329432249069 16.242347627878193 44.227812319993973 5.7372826039791098
leaf_count=64 22 27 33 23 22 26 41 34 59 17 31 19 46 44 23 36 67 20 242 255 40 57 27 64 22 1270 15 65 212 28
internal_value=-4.90368e-05 -0.000848453 0.0176124 0.0333402 0.0105284 0.0703037 -0.00772607 -0.0479685 0.0198465 -0.00574291 0.00942002 -0.0192435 0.0234905 -0.00418962 0.00652614 -0.00765118 0.00323337 0.0382005 0.0342276 -0.0148933 -0.00261886 -0.0940021 -0.0674958 0.00278883 -0.0227482 -0.0107322 -0.0301426 -0.00938962 -0.0327769 0.0144733
internal_weight=675.107 669.135 102.545 63.2719 39.1256 24.1462 39.2736 15.9681 23.3055 33.1102 28.084 22.7965 16.3368 566.59 214.792 142.078 126.174 43.0768 72.7139 83.097 67.3754 15.9042 15.7216 24.2167 18.4304 351.798 10.9502 347.036 66.2074 21.9796
internal_count=2951 2929 415 248 158 90 167 75 92 136 113 96 65 2514 912 626 546 173 286 373 295 80 78 106 86 1602 51 1575 305 93
is_linear=0
shrinkage=0.1


Tree=17
num_leaves=31
num_cat=0
split_feature=9 4 16 8 10 8 10 0 5 11 4 1 8 11 3 4 9 4 4 9 0 5 0 11 7 7 10 5 7 7
split_gain=4.05759 3.5534 5.72054 5.74563 5.06731 4.15576 3.94556 7.15514 12.0171 9.4367 8.43374 7.15339 5.23863 7.95255 6.72317 9.19447 5.46692 6.56586 6.05724 7.19521 5.89281 5.19035 6.46748 5.01776 13.5737 4.38002 4.32292 4.29157 4.22229 7.6838
threshold=23241.549316500004 59042.848883758685 1.0000000180025095e-35 22.024957018731978 5120.560485250001 9.8228530702433243 5848.2442975000013 64481.320000000007 61940.857510728274 0.085716082471204921 68559.61816878141 57897.561723130922 24.074764660321886 -0.070089458504668731 53.499050044354171 98347.540493299064 4442.5539150000013 71113.832456060089 89919.72567907082 3290.2234050000002 97085.800000000017 74800.651497239145 69888.175000000003 0.050740944272825377 1021.6811268534224 -1386.5637344854433 7818.6534277500004 90798.662010494139 1806.0840969162821 1398.9508838982849
decision_type=2 2 2 2 2 2 2 2 2 2 2 2 2 2 2 2 2 2 2 2 2 2 2 2 2 2 2 2 2 2
left_child=1 2 4 -4 -1 -3 11 9 -9 -8 -10 -7 13 -12 27 21 18 -18 19 -14 23 22 -16 26 -25 -13 -19 -15 29 -27
right_child=-2 5 3 -5 -6 6 7 8 10 -11 12 25 16 14 15 -17 17 20 -20 -21 -22 -23 -24 24 -26 28 -28 -29 -30 -31
leaf_value=0.11722237597739874 0.083380496850406827 0.10483886042861812 -0.10323094317554815 0.047882240070437523 0.0088286246034364572 -0.14647631748396892 0.085348540145389312 -0.13092305155861991 0.11375234201604326 -0.019368528650820598 -0.12246092178983509 0.095921961571046627 0.062871328929306011 0.032663390326838584 0.068107609737811201 -0.090907557575281225 -0.1090616065163455 0.0078038523856128602 -0.14562916388378991 -0.10308853663797529 -0.065373648153277369 0.10362588879856081 -0.080472443912450065 -0.11337736530145588 0.051757072639181369 -0.0069583525897610578 0.09777111039111859 0.12998381895799829 0.068307694308483241 -0.10407834407290491
leaf_weight=9.6987544745206851 5.780836045742034 3.6013443917036048 4.8983976095914858 5.1736346334218979 7.7665821909904471 3.6857862770557395 24.45070469379425 6.7385085821151725 6.8841843307018271 13.27956050634384 3.3781207948923102 4.1292796730995169 5.1811666041612643 8.653717368841173 6.2598821520805412 7.3013311251997939 5.2124425321817389 9.585118383169176 6.1907526552677146 5.2691140174865723 8.8951955288648588 7.8341037034988394 5.5068651735782623 7.9915318340063122 13.198587849736212 437.95109693706036 12.061465516686438 9.5113843828439695 7.2230604887008658 8.300666391849516
leaf_count=34 22 12 23 20 31 18 89 37 23 60 18 14 20 33 22 42 27 40 35 28 45 26 26 39 50 1970 41 31 26 49
internal_value=-3.78682e-05 -0.000762138 0.0344092 -0.0256096 0.0690212 -0.00227955 -0.00288737 0.00997325 -0.000740325 0.0484923 0.00606445 -0.00772126 -1.06006e-05 0.0255249 0.0366175 0.00487933 -0.016822 -0.00208736 -0.067243 -0.0208069 0.00869123 0.04056 -0.0014282 0.0240711 -0.0105209 -0.00660365 0.0579336 0.0836211 -0.00753724 -0.00876487
internal_weight=671.593 665.812 27.5374 10.072 17.4653 638.275 634.674 173.384 135.653 37.7303 128.915 461.29 122.031 48.4454 45.0673 26.9022 73.5854 56.9443 16.641 10.4503 51.7319 19.6009 11.7667 42.8367 21.1901 457.604 21.6466 18.1651 453.475 446.252
internal_count=2951 2929 108 43 65 2821 2809 732 583 149 546 2077 523 198 180 116 325 242 83 48 215 74 48 170 89 2059 81 64 2045 2019
is_linear=0
shrinkage=0.1


Tree=18
num_leaves=31
num_cat=0
split_feature=3 11 10 2 10 8 8 7 5 5 8 11 10 7 11 7 3 2 11 15 13 11 4 5 16 2 10 10 8 8
split_gain=3.64522 7.29986 4.26754 4.14063 4.95886 3.94846 4.46756 4.45599 4.43459 4.16567 3.76452 6.64976 7.01814 6.74145 5.80561 9.55719 7.57855 6.83586 5.69867 5.98475 9.94178 10.6561 7.44231 23.4615 9.28897 12.1019 9.18831 9.82764 8.39833 7.72479
threshold=33.472850842346695 -0.23955463183794964 8836.2038542500031 106183.81298068781 3576.9089402500003 56.504802667515413 53.305897574101103 2048.6972582919198 50625.313379243649 51113.634892372778 28.384245214268564 -0.16380123980671146 2349.05231125 -1253.6711879654129 -0.042849388809704167 -540.11736118023975 46.269659897276753 61362.138778614353 -0.22666278422906025 57959.926350000002 59046.094000000005 0.17398629958986758 92877.397211588963 93008.737634861332 1.0000000180025095e-35 63773.937322174112 3121.1196987500002 5635.0237237500014 24.208132647633345 23.978656855698656
decision_type=2 2 2 2 2 2 2 2 2 2 2 2 2 2 2 2 2 2 2 2 2 2 2 2 2 2 2 2 2 2
left_child=1 -1 -3 5 -5 6 8 -7 -2 -10 18 -12 -13 -14 15 16 17 -15 -11 20 21 -20 24 28 26 -26 -21 -28 -24 -29
right_child=3 2 -4 4 -6 7 -8 -9 9 10 11 12 13 14 -16 -17 -18 -19 19 22 -22 -23 23 -25 25 -27 27 29 -30 -31
leaf_value=0.11621590680113601 0.087293736074136916 -0.0056542906679967475 0.084803025268406468 -0.085145256888516374 0.040087161526354796 -0.14390993468177005 0.070278991249755535 0.0025322421426358403 -0.097369642938323939 -0.079614980883322806 0.056161848722543345 0.087496672815336615 0.03829804272543072 -0.15145839410491468 -0.017987254871875979 -0.13685437731895411 0.081944651825556158 0.0021936332668834758 0.034582789387923696 0.036952821533343297 0.14020468644356007 -0.081841317456988902 0.052643114789707013 -0.0061888516501885302 0.099367096203938188 -0.0088196757367372241 -0.080810217711447335 0.046919256090787592 0.15697752173358775 -0.099778266179689712
leaf_weight=7.6748733073472968 5.6589470803737631 31.625934854149818 6.2453584522008887 11.908710755407812 4.3049070090055457 4.06860403716564 8.9769920706748945 4.2465648949146271 4.5121661126613608 7.7921168953180304 13.400936484336851 6.2461488693952552 17.727853953838348 5.0592318624258095 136.2565224468708 11.735774196684359 5.1366624087095252 6.7699854522943497 61.411136090755463 12.88034814596176 7.5805283635854712 9.0158128589391691 22.191818714141846 109.22153613716364 12.570526763796805 58.2610202729702 44.861128345131874 13.068774685263636 11.826562374830244 4.9488435238599768
leaf_count=26 21 130 24 75 19 24 35 18 22 40 52 23 71 28 641 76 19 28 246 50 25 43 84 493 44 258 227 50 35 24
internal_value=-2.20828e-05 0.0272854 0.00926303 -0.00202284 -0.0518946 -0.000687251 0.000265745 -0.0691218 -0.000802903 -0.00165879 -0.000911576 -0.011908 -0.0167362 -0.0203 -0.0265974 -0.0674728 -0.0194797 -0.0635217 0.00501165 0.00680434 0.0313909 0.0196786 0.000186889 0.0163976 -0.0156533 0.0103803 -0.0399936 -0.0557557 0.0889152 0.0066263
internal_weight=667.186 45.5462 37.8713 621.64 16.2136 605.427 597.111 8.31517 588.134 582.475 577.963 202.333 188.932 182.686 164.958 28.7017 16.9659 11.8292 375.63 367.838 78.0075 70.4269 289.831 143.24 146.591 70.8315 75.7591 62.8787 34.0184 18.0176
internal_count=2951 180 154 2771 94 2677 2635 42 2600 2579 2557 938 886 863 792 151 75 56 1619 1579 314 289 1265 612 653 302 351 301 119 74
is_linear=0
shrinkage=0.1


Tree=19
num_leaves=31
num_cat=0
split_feature=3 11 1 4 5 3 0 1 8 8 10 10 3 8 10 8 10 8 7 11 11 0 3 7 3 3 5 3 9 7
split_gain=3.04849 4.45598 4.05751 5.14064 4.65653 8.27126 5.94601 3.2266 3.11233 4.56674 6.58182 6.92733 5.84944 4.67535 7.46139 7.10397 6.26739 6.1156 5.04896 4.98812 5.45243 6.02349 5.68893 5.74397 5.22402 10.2734 7.15062 6.67008 6.59112 5.09056
threshold=34.886716989049816 -0.23955463183794964 60136.384881440543 65893.591153356843 79855.850434043226 31.904381034854229 93539.060000000012 64939.063203002748 56.504802667515413 47.452255551472227 9021.3540265500033 5909.0765638750008 63.857560810474489 26.82583898008296 2316.4635597500005 27.357713712472524 11525.472964000002 28.384245214268564 1185.4685512341644 -0.16380123980671146 0.17999574332731169 62901.150000000001 70.184653380566388 954.07305546762711 56.077437873292041 48.374955914663808 92686.461528611064 67.915827011660767 2982.7039400000003 -1288.9083309966393
decision_type=2 2 2 2 2 2 2 2 2 2 2 2 2 2 2 2 2 2 2 2 2 2 2 2 2 2 2 2 2 2
left_child=1 -1 -3 -4 7 6 -6 -5 9 13 11 12 -11 18 -15 -16 17 -17 -2 -19 24 -22 -23 -24 25 29 28 -26 -27 -21
right_child=8 2 3 4 5 -7 -8 -9 -10 10 -12 -13 -14 14 15 16 -18 19 -20 20 21 22 23 -25 27 26 -28 -29 -30 -31
leaf_value=0.087653623912359258 0.0022610966786380548 0.083839240911660465 -0.08710650780826068 -0.0049249384896262157 -0.061086147865784327 -0.12061455122580345 0.086115556301973067 0.081126144000290015 -0.063364958752478537 0.068451476404117487 -0.046824103883897988 0.13294300664713268 -0.076001627910699143 0.096253354102732211 -0.11082711917807656 0.037823905813602045 0.065996953185507454 0.040920625896219691 0.098501186393065668 0.013765951845340985 0.081084097109033429 0.0077044573479607449 0.014660195256898885 -0.13487005900121912 -0.09601161567739723 0.11568740594029876 -0.097364967030091953 -0.0031764615514079282 0.0043972918969959482 -0.069659216853460132
leaf_weight=8.7754735648632032 353.15886217355728 6.4690163582563391 5.9777625054121009 7.0774029195308712 4.6593171060085314 5.8727775365114203 6.6758190840482712 11.338217735290526 8.1786352097988111 7.8642831370234543 6.8730940520763388 8.9004560858011228 4.3559179157018661 5.8573231101036063 7.9604928866028777 17.519451513886452 9.2260383367538434 10.990788623690603 5.5366288870573035 9.0874401032924563 7.6513693034648886 28.266303859651089 4.1704583242535573 6.6896837875247002 28.061803035438061 8.5399165153503471 4.0872796922922126 10.686762265861033 14.121403381228445 37.485606253147132
leaf_count=32 1554 25 28 29 21 29 23 41 42 31 31 31 22 21 43 71 36 44 19 38 29 133 20 41 153 31 23 52 63 195
internal_value=-1.54056e-05 0.0221258 0.0101633 -0.00129328 0.0131065 -0.0242952 0.0256082 0.0480554 -0.00209486 -0.00125562 0.0381761 0.0658369 0.0169608 -0.00319525 -0.0150298 -0.0182165 -0.0144663 -0.0184285 0.00374661 -0.0242312 -0.0287391 -6.23674e-05 -0.015931 -0.0774482 -0.0407086 -0.0250134 0.0243788 -0.0704079 0.046337 -0.0533811
internal_weight=662.116 56.8458 48.0703 41.6013 35.6235 17.2079 11.3351 18.4156 605.27 597.091 27.9938 21.1207 12.2202 569.098 210.402 204.545 196.584 187.358 358.695 169.839 158.848 46.7778 39.1264 10.8601 112.07 73.3216 26.7486 38.7486 22.6613 46.573
internal_count=2951 228 196 171 143 73 44 70 2723 2681 115 84 53 2566 993 972 929 893 1573 822 778 223 194 61 555 350 117 205 94 233
is_linear=0
shrinkage=0.1


Tree=20
num_leaves=31
num_cat=0
split_feature=9 14 7 8 11 6 7 7 4 2 3 7 10 5 2 1 4 2 14 8 4 4 11 9 11 2 3 7 3 9
split_gain=2.90055 2.71934 5.18764 9.08191 8.36492 6.79892 6.23793 7.94038 6.10701 9.27557 7.61088 5.28524 9.05353 4.85816 4.21352 4.70775 4.87757 9.01213 5.24865 9.4706 6.27983 4.37335 4.29146 5.78832 3.38454 3.18499 3.48075 4.60818 8.54094 8.62593
threshold=23241.549316500004 63023.606800000009 248.19794640468476 21.75349752531022 0.1570350294468191 111.23482411689839 -44.32101509328556 -165.33042413438574 58631.025777572228 58954.187211021628 39.07957137095989 -342.72017470050827 8694.8860400000012 57190.928518285007 61248.258517435614 61753.27679201003 64115.822911023475 62204.997069235404 64789.035000000011 23.064307557705991 65453.105047674595 63998.358557097097 0.18154702873994669 4442.5539150000013 0.041193003854550783 62050.224427188841 31.904381034854229 -572.22092164319633 44.436146668744193 4935.5345700000007
decision_type=2 2 2 2 2 2 2 2 2 2 2 2 2 2 2 2 2 2 2 2 2 2 2 2 2 2 2 2 2 2
left_child=1 2 5 4 -4 6 7 8 -1 -10 -11 12 24 -7 22 21 17 -17 19 -18 -20 -16 23 -3 -12 -22 -27 28 -28 -30
right_child=-2 14 3 -5 -6 13 -8 -9 9 10 11 -13 -14 -15 15 16 18 -19 20 -21 25 -23 -24 -25 -26 26 27 -29 29 -31
leaf_value=0.088608568236128005 0.072968192297349521 -0.11546802110676635 0.06471554987371432 0.11593438182026046 -0.11761029714592984 -0.016589567744302158 0.083522051230754443 -0.12476905571575447 -0.13788039935700677 0.12122689267521201 -0.053090473514615467 0.060448442282928908 0.078216237696922708 -0.15599811279517156 0.10967613118933904 0.010977800200400387 0.16593344999627677 -0.14113164727205477 -0.093119678174460638 -0.0063861203029366015 -0.082236891554128042 -0.0028543727671747759 -0.15328226181998827 0.027284100650040208 -0.17523776790279436 0.035826311585261512 0.00091959575971587489 0.001221427088796247 -0.030958581444568856 -0.15166143826361275
leaf_weight=8.4636092633008868 5.4012403041124335 4.55914358794689 6.0092131495475787 12.127780660986899 4.3290986120700836 6.2196499407291395 10.835383117198942 4.6504790931940141 4.6217915713787106 5.4219679832458523 5.7297517061233503 6.6845975071191797 3.982249155640603 4.1795155107975006 7.2252465635538083 8.5803754925727826 5.1936546862125388 7.1331885084509841 7.642775982618331 8.2646946087479574 4.8727661892771712 6.6160236448049545 3.4283209294080725 7.5348161533474922 3.7551827728748322 24.410827204585075 43.054407455027103 401.39449089765549 17.807682812213901 8.8696233555674535
leaf_count=31 22 28 23 44 22 28 40 23 23 19 28 25 16 23 25 37 15 42 41 39 28 30 25 34 22 95 184 1806 81 52
internal_value=-1.21831e-05 -0.000615282 0.0158445 0.0572316 -0.0116322 0.00143881 0.0156625 -0.00131492 0.0135359 -0.00750644 0.0160553 -0.0122418 -0.0483225 -0.0726191 -0.003143 -0.00169568 -0.00317927 -0.0580724 -0.00152529 0.060113 -0.00315809 0.0558874 -0.0545252 -0.0265302 -0.10145 -0.00178411 -0.000992991 -0.00290074 -0.026629 -0.0710897
internal_weight=659 653.598 87.0103 22.4661 10.3383 64.5442 54.145 43.3096 38.6591 30.1955 25.5737 20.1518 13.4672 10.3992 566.588 551.066 537.224 15.7136 521.511 13.4583 508.053 13.8413 15.5223 12.094 9.48493 500.41 495.537 471.126 69.7317 26.6773
internal_count=2951 2929 367 89 45 278 227 187 164 133 110 91 66 51 2562 2475 2420 79 2341 54 2287 55 87 62 50 2246 2218 2123 317 133
is_linear=0
shrinkage=0.1


Tree=21
num_leaves=31
num_cat=0
split_feature=0 4 9 10 6 6 0 9 5 10 7 10 2 6 8 10 0 0 8 0 1 7 4 8 3 4 3 10 3 11
split_gain=2.71658 3.92108 2.94048 7.45756 4.977 6.27208 5.44296 4.56463 4.21646 6.34239 4.8883 3.93195 4.43399 4.32572 4.56083 4.14728 9.57041 3.79723 5.61711 5.49344 7.14664 6.64184 6.0197 4.5889 5.5458 4.35994 8.5389 3.50954 3.18839 6.3399
threshold=108729.22000000002 110852.52174788616 1668.6051700000003 4178.5738425000009 838.47449793303542 565.81195816591946 105236.77500000001 1487.7164350000003 93541.334966856302 2877.3872710000005 -370.34622499900337 2649.2495317500002 103593.32179120576 307.78521461246424 26.971397346546631 3512.2570230000006 104541.33000000002 103588.36500000001 32.027017530111628 99687.565000000017 98281.986460507338 653.90717327559571 106536.80480493627 22.587212368508087 53.882885307266896 106483.48660498865 54.57450036476245 2272.2241755000005 41.197984785865636 0.097334627775446325
decision_type=2 2 2 2 2 2 2 2 2 2 2 2 2 2 2 2 2 2 2 2 2 2 2 2 2 2 2 2 2 2
left_child=2 -2 3 4 5 6 8 -5 9 -1 -10 13 17 14 -4 16 -14 19 23 20 28 25 -22 24 -19 26 -21 -15 29 -13
right_child=1 -3 11 7 -6 -7 -8 -9 10 -11 -12 12 15 27 -16 -17 -18 18 -20 21 22 -23 -24 -25 -26 -27 -28 -29 -30 -31
leaf_value=0.067569510536697394 0.023118939728174893 -0.1345543588192703 -0.089231304116885346 -0.14963264479347183 -0.1135627555768568 0.084525328741025682 0.089066866665549707 -0.020192492598713922 0.0014713812192827065 -0.032445018126877584 -0.11211840314536259 0.013962286242117232 0.11396377958954303 0.084250783012696229 0.016707328848642563 0.10573554123209034 -0.077865249100518258 0.0068381718213181703 -0.14565072973861956 0.11017205945680653 -0.13420641963044541 0.096998542242961672 0.014340402717506813 0.044060079054395407 -0.16223008994920826 -0.082403349631423761 -0.082074088753858687 -0.0316093193644559 -0.00014032420395893448 0.12603797109624024
leaf_weight=9.53071988373995 2.8264157176017752 3.5685437098145485 14.344248041510587 6.3142364919185621 3.9272411540150634 8.0663615316152555 4.9227751046419135 4.7919394224882126 6.5946237444877616 18.942529328167439 8.9038808494806272 100.23427859693766 4.8432725816965121 4.700588330626486 5.6702545434236518 8.2636540830135328 5.6170421913266182 4.5341141670942324 4.0073997676372519 6.0759221911430377 6.92964820563793 13.910957738757132 4.4992653429508209 7.3837189674377441 3.3913502544164658 4.4368529692292205 3.7279766425490379 5.8910577744245529 362.9942768663168 5.3149435818195334
leaf_count=36 18 26 80 42 24 32 19 25 30 95 50 423 16 18 24 28 34 20 27 22 41 50 18 28 20 22 21 27 1618 17
internal_value=-8.80618e-06 -0.0648666 0.000630505 -0.0184249 -0.00467925 0.00282786 -0.0106502 -0.0937836 -0.0218138 0.00103239 -0.0637859 0.00300906 0.0049636 -0.0318696 -0.0592181 0.0527851 0.0109543 0.00326595 -0.0402518 0.0049203 0.00240215 0.0478535 -0.0757274 -0.0126621 -0.0655071 -0.000153431 0.0370696 0.0198096 0.00430792 0.0196059
internal_weight=655.16 6.39496 648.765 71.9943 60.8881 56.9609 48.8945 11.1062 43.9718 28.4732 15.4985 576.771 546.165 30.6061 20.0145 18.724 10.4603 527.441 19.3166 508.124 479.972 28.1517 11.4289 15.3092 7.92546 14.2408 9.8039 10.5916 468.543 105.549
internal_count=2951 44 2907 353 286 262 230 67 211 131 80 2554 2405 149 104 78 50 2327 95 2232 2117 115 59 68 40 65 43 45 2058 440
is_linear=0
shrinkage=0.1


Tree=22
num_leaves=31
num_cat=0
split_feature=9 11 7 11 10 6 1 1 11 2 5 16 7 6 3 11 4 1 6 2 3 7 2 1 2 3 8 10 5 11
split_gain=2.42056 2.39777 7.70575 7.21524 6.98894 6.52674 6.25867 8.32947 7.89509 5.24378 8.07357 6.46778 5.84839 8.67986 7.08235 8.02904 5.22473 10.7418 7.66958 10.7761 8.53663 6.03712 5.18765 9.21093 6.51324 5.20778 6.06285 5.63469 5.14285 7.00257
threshold=23241.549316500004 0.12840537571200233 -418.36248515447329 0.11541162922486116 7592.9039232500008 1226.1626853162236 87950.445114467249 99881.855176618381 0.011425727660070174 59731.937051215464 56259.866475559786 1.0000000180025095e-35 -187.98631089413314 -554.9241499382332 42.202582119342964 0.041193003854550783 110852.52174788616 104506.84356627749 544.36157650110556 95241.624138941785 58.348043236847595 454.88707282835679 106100.47520804631 104872.8203543366 100687.24368800307 57.273146056117554 20.69704958803948 4178.5738425000009 87369.178846641982 -0.096360276334371428
decision_type=2 2 2 2 2 2 2 2 2 2 2 2 2 2 2 2 2 2 2 2 2 2 2 2 2 2 2 2 2 2
left_child=1 3 -3 4 5 9 8 -8 -6 10 11 -1 13 14 28 -16 17 18 21 20 -20 -14 23 24 25 26 27 -4 29 -11
right_child=-2 2 22 -5 6 -7 7 -9 -10 12 -12 -13 16 -15 15 -17 -18 -19 19 -21 -22 -23 -24 -25 -26 -27 -28 -29 -30 -31
leaf_value=0.020901372815851273 0.067890604855890282 -0.092199938981043825 -0.088644498468804067 0.053391795983527363 0.090282916543067943 -0.12192892340548045 -0.080098329388396255 0.078102315952738782 0.012431224660851009 0.0074255692119374111 0.071025983480644844 -0.104926805319455 -0.020172311078372279 0.03276624198046927 -0.10812416286427645 0.031077521595140285 0.08576646823968663 -0.12754633569635018 0.048200737780538787 0.11807741804304095 -0.053679705485889385 -0.083279870182537463 -0.10762981991988324 0.12270687054705257 -0.11476610505709516 -0.01296731710141525 0.063069022826737833 0.064477874952100139 0.036651380229048715 -0.089045528325572276
leaf_weight=13.38292156159878 5.2056621462106696 10.881770096719263 6.3301931172609347 26.870274074375629 22.690044492483139 4.7315772324800482 10.016667410731314 4.984172746539115 30.585125751793385 23.792710244655609 22.138676866889 5.8798667043447486 114.44455767422915 69.376508235931396 14.091095790266992 5.8695401325821868 4.5892139673233023 9.2033857330679876 15.520053587853907 8.9215549528598768 17.495843082666397 17.473308622837067 4.795475296676158 5.7019700407981864 5.3858793228864661 110.81615896522999 21.530416578054428 3.873925119638443 24.604684486985207 11.004245236515997
leaf_count=55 22 60 32 107 85 31 51 19 130 100 86 29 529 292 77 25 20 63 63 31 93 96 34 23 29 519 81 16 99 54
internal_value=-2.66368e-05 -0.000573104 -0.0107983 0.00305136 5.07559e-05 -0.00520969 0.0295227 -0.0275347 0.0455885 -0.00374785 0.0298344 -0.017507 -0.00788105 0.00692907 -0.0156571 -0.0671911 -0.0196203 -0.0222623 -0.0166889 0.0205625 -0.00578793 -0.0285313 -0.00520735 -0.00201047 -0.00681749 -0.00273896 0.0329782 -0.0305126 0.00165974 -0.0230826
internal_weight=652.187 646.982 169.316 477.666 450.796 382.52 68.276 15.0008 53.2752 377.788 41.4015 19.2628 336.387 148.739 79.3623 19.9606 187.648 183.059 173.855 41.9375 33.0159 131.918 158.434 153.639 147.937 142.551 31.7345 10.2041 59.4016 34.797
internal_count=2951 2929 794 2135 2028 1743 285 70 215 1712 170 84 1542 647 355 102 895 875 812 187 156 625 734 700 677 648 129 48 253 154
is_linear=0
shrinkage=0.1


Tree=23
num_leaves=31
num_cat=0
split_feature=13 0 3 3 7 7 10 8 7 3 9 8 11 8 3 6 2 6 8 10 16 16 0 3 9 11 5 11 9 9
split_gain=2.42152 4.70256 3.79099 3.21046 2.96668 4.80479 9.01317 6.74558 3.9384 4.93178 5.13791 3.26062 5.94733 7.71234 6.21684 6.19012 8.83024 7.81757 5.94092 7.26444 5.69022 5.11047 4.46774 3.21344 7.02935 6.61722 6.88682 7.79038 6.37955 5.70219
threshold=55246.430000000008 51724.06500000001 81.656283900680037 77.78860918468601 1933.8838226769237 1503.9791724734066 6742.5040899000005 40.276789508103484 1155.525811195552 69.643498305300298 4442.5539150000013 15.948105136575276 0.0030426528469833978 12.056255929656297 54.396105833932758 95.631948876813127 95878.370513631744 295.27938387134424 12.791838351635436 3415.6282040000006 1.0000000180025095e-35 1.0000000180025095e-35 67850.005000000019 42.040161779561998 5684.6288100000011 -0.046846851129952821 83110.290969693175 -0.066703716717330719 4067.3164800000004 9281.5696400000015
decision_type=2 2 2 2 2 2 2 2 2 2 2 2 2 2 2 2 2 2 2 2 2 2 2 2 2 2 2 2 2 2
left_child=1 -1 3 4 5 8 7 -7 11 10 -10 12 14 22 18 16 -15 -17 21 -20 -19 -2 -14 24 -13 26 28 -28 -25 -27
right_child=2 -3 -4 -5 -6 6 -8 -9 9 -11 -12 23 13 15 -16 17 -18 20 19 -21 -22 -23 -24 25 -26 29 27 -29 -30 -31
leaf_value=-0.036954202702024465 0.013849534674113907 0.08051817343419862 -0.092696742850106983 0.079795225134649553 0.054637986694025469 0.082789263712169936 -0.13635892079757059 -0.069586537938430754 -0.0058072862674704269 -0.048139315632627654 0.10868284553166684 -0.012319451919619254 -0.007895365703049476 0.12846373617608151 0.12484035136989524 -0.10098295679466547 -0.019011963585836927 0.085736740189816002 0.037135494245928199 -0.11653366754304369 -0.042003097486115457 0.1414519849592952 -0.14542754989643392 -0.11966350292343216 0.033653012193480984 0.00052299399505568403 0.018520126190821429 -0.11159528716253578 -0.025714691844345806 -0.047847517322003152
leaf_weight=5.2256597727537146 6.7238974124193209 9.795387387275694 4.4741822779178611 4.9623551815748206 9.4523780792951566 5.6235879957675952 7.5281977057456961 6.0103748068213463 6.1696009412407937 4.7760925292968741 10.748295381665228 74.168767653405666 4.1610507965087873 8.8384219408035296 8.1664477586746198 7.7894726470112827 7.5097751319408408 7.2215699106454831 7.8488103151321393 5.0592445880174637 6.7435717731714249 5.8863248527050018 5.4630975052714348 15.274268850684168 60.300728194415569 271.81225189566612 23.834256313741211 5.7024552822113028 13.720297791063784 26.771809346973896
leaf_count=24 28 41 25 20 36 22 44 35 30 26 40 341 19 28 28 42 32 27 32 26 33 19 32 100 245 1243 105 30 69 129
internal_value=-3.16774e-05 0.0396508 -0.000973725 -0.000320523 -0.000958353 -0.00181445 -0.051101 0.00406839 -0.000226336 0.0415972 0.0669307 -0.0018098 0.0167268 -0.0059798 0.0488992 0.0142231 0.0607187 -0.0207175 0.0245962 -0.0230943 0.024053 0.0734131 -0.0859648 -0.00487966 0.00829618 -0.00984093 -0.0405858 -0.00660039 -0.0752067 -0.00381403
internal_weight=647.763 15.021 632.742 628.267 623.305 613.853 19.1622 11.634 594.691 21.694 16.9179 572.997 81.4117 47.727 33.6847 38.1028 16.3482 21.7546 25.5183 12.9081 13.9651 12.6102 9.62415 491.585 134.469 357.115 58.5313 29.5367 28.9946 298.584
internal_count=2951 65 2886 2861 2841 2805 101 57 2704 96 70 2608 346 213 133 162 60 102 105 58 60 47 51 2262 586 1676 304 135 169 1372
is_linear=0
shrinkage=0.1


Tree=24
num_leaves=31
num_cat=0
split_feature=13 0 3 3 8 8 7 11 10 10 15 15 8 7 3 7 5 8 0 4 8 7 2 13 10 0 5 1 3 10
split_gain=2.02168 3.98851 3.09666 2.63006 2.54846 5.48505 5.04919 5.04757 4.80359 6.36897 4.65882 5.00983 4.41823 3.71446 11.947 4.398 3.82809 5.49204 4.44284 4.68817 15.8713 7.58327 7.38664 4.43906 7.19251 4.37012 12.698 9.16369 7.67302 6.84278
threshold=55246.430000000008 51724.06500000001 81.656283900680037 77.78860918468601 26.82583898008296 26.169201262408915 1185.4685512341644 -0.23143936746470123 2349.05231125 2620.0840552500008 56721.627550000005 56170.930550000012 27.357713712472524 -579.569297672424 42.202582119342964 -642.22252181533588 57801.214579893829 20.783940990301364 59776.995000000003 64115.822911023475 16.073780139815991 -260.42238301691322 62607.731851287892 58978.254100000006 3619.8114597500003 87363.215000000011 93008.737634861332 84750.252110343616 60.800577280240887 3483.1957540000008
decision_type=2 2 2 2 2 2 2 2 2 2 2 2 2 2 2 2 2 2 2 2 2 2 2 2 2 2 2 2 2 2
left_child=1 -1 3 4 5 6 10 -6 -9 -10 11 -2 -11 14 -12 -16 17 -15 -18 20 -20 -22 -21 24 -24 27 -27 28 -25 -28
right_child=2 -3 -4 -5 7 -7 -8 8 9 12 13 -13 -14 16 15 -17 18 -19 19 22 21 -23 23 25 -26 26 29 -29 -30 -31
leaf_value=-0.033007203516640354 -0.0012661268963958337 0.075727969453412425 -0.08410074290885737 0.072593652479186851 0.074610618742044374 0.071592465743386541 0.10224102361079793 0.070022695876084173 -0.11444135547273906 -0.085066902380606019 0.057106162499922723 0.10652106906624821 -0.0080445582606224475 -0.13203799473714267 -0.15780548746935089 -0.029563248486610533 0.076825366087188623 0.023004290856982003 0.092167872008936252 0.097726183615650622 0.0071701669110512947 -0.13518730051501957 0.14384783185013048 0.00093504918608532236 0.0088668224645519558 0.069427190036228145 -0.027469361710829004 -0.13198491514697394 -0.082820178787609555 0.024294990276696175
leaf_weight=5.2633588910102835 8.8090884238481539 9.3947609141468984 4.4401320517063132 4.9118690937757483 7.1294275522232047 11.819738820195196 4.9845634400844565 7.1638498306274405 6.0428967028856269 7.69291067123413 7.0093542188406017 8.4469211101531965 233.5331122726202 5.1013128161430341 7.0214641988277444 4.3192129284143421 7.8844666630029669 4.1380039006471634 6.4741171151399639 8.2472254037857038 5.4212173819541993 12.080053545534605 5.54686111211777 85.167788825929165 13.692006543278692 28.195178747177124 61.938672907650471 6.5519992113113394 12.549897581338881 43.452251233160496
leaf_count=24 37 41 25 20 28 46 17 27 36 42 27 33 1108 27 43 20 30 18 25 29 23 70 17 382 57 103 310 34 62 190
internal_value=-2.91757e-05 0.0366839 -0.000883692 -0.000292808 -0.000869857 0.00460192 0.00232025 -0.00837689 -0.0107023 -0.013041 0.000864135 0.0514964 -0.0105009 -0.00182593 -0.0455279 -0.108963 0.000790989 -0.0625994 0.00276165 0.000743266 -0.0416049 -0.0910905 0.0045697 0.00158137 0.0477839 -0.0021557 0.00981965 -0.017498 -0.00982165 -0.00612713
internal_weight=644.424 14.6581 629.766 625.325 620.414 358.851 347.032 261.562 254.433 247.269 342.047 17.256 241.226 324.791 18.35 11.3407 306.441 9.23932 297.202 289.317 23.9754 17.5013 265.342 257.095 19.2389 237.856 133.586 104.27 97.7177 105.391
internal_count=2951 65 2886 2861 2841 1600 1554 1241 1213 1186 1537 70 1150 1467 90 63 1377 45 1332 1302 118 93 1184 1155 74 1081 603 478 444 500
is_linear=0
shrinkage=0.1


Tree=25
num_leaves=31
num_cat=0
split_feature=9 3 0 4 4 4 8 4 2 5 1 9 10 3 10 5 9 9 8 12 9 10 7 6 12 0 2 1 0 5
split_gain=1.94856 4.03435 1.86034 3.54804 3.1223 3.5912 6.87136 3.11095 3.62923 2.93119 6.62733 2.5554 8.63941 3.70353 3.12992 6.80268 5.4714 4.82106 4.32619 4.25003 3.37562 3.14576 8.84317 5.89897 3.47911 7.18204 10.5099 7.40768 13.0638 6.33965
threshold=17117.359675500004 50.626328264914513 108729.22000000002 110852.52174788616 111326.79387649579 108206.75431850507 32.278603739157624 107210.36381448132 103094.40308050033 102226.30361346476 105234.76636266631 1431.0127150000001 3385.6683090000006 50.312904019213299 2649.2495317500002 93505.242897187403 2220.5134400000002 1513.4149200000004 31.380187881722701 73039.260000000024 1639.9097100000001 3010.3675402500007 515.16125236252253 202.87735223107305 71908.731000000014 84047.315000000017 87719.092733745842 87636.979106936182 92334.515000000014 98919.381185944614
decision_type=2 2 2 2 2 2 2 2 2 2 2 2 2 2 2 2 2 2 2 2 2 2 2 2 2 2 2 2 2 2
left_child=2 -2 4 -4 5 7 -7 9 -9 11 -11 12 -1 -14 15 16 -13 -16 -17 20 -19 22 23 -22 29 -26 -27 -28 -29 -23
right_child=1 -3 3 -5 -6 6 -8 8 -10 10 -12 14 13 -15 17 18 -18 19 -20 -21 21 24 -24 -25 25 26 27 28 -30 -31
leaf_value=0.0082863818539983258 0.077699890139988098 -0.01860046180211776 0.026220441285108705 -0.12880249993955911 0.084558813586716922 -0.10358961237551596 0.051582823893535724 -0.017228541227908272 0.082176744511688521 -0.099056647908197876 0.06089688517253064 0.085955161962393389 -0.040449318281368447 -0.14747762377194881 0.093568307357076885 -0.14350226216915482 -0.038631039761048175 -0.069301602528585651 -0.0052519100754676081 0.093121934157439773 0.026312990859978458 0.0031560039464054537 -0.079434814509497437 0.12668384095216031 0.027223571609204772 -0.11474203207882057 0.089324768422419279 -0.15933307689479723 -0.0076210135788596853 0.11816012330085529
leaf_weight=26.298004373908043 9.3512304276227969 8.1345608010888082 2.761097013950347 3.1729845404624939 4.2944494932889929 8.7574722394347173 4.2331660091876975 5.9391453713178626 9.6247841939330083 8.3916934877634031 3.7468717843294135 5.8060482442379024 6.7823376134037954 6.1782009676098824 5.8722396716475478 6.6264764070510846 8.9722923040389997 6.6442371904849997 3.4377141892910004 5.114721104502677 21.638348244130615 354.8037094771862 6.0223792791366568 8.0278447270393354 26.656275779008865 13.03773473203182 6.0670504420995703 6.5455697923898688 42.715741463005543 4.8589872121810904
leaf_count=117 40 37 18 26 16 62 19 27 37 53 18 21 40 41 24 39 43 39 16 18 93 1606 31 26 108 68 21 35 196 16
internal_value=-2.32742e-05 0.0329 -0.000947294 -0.0566711 -0.000411444 -0.00100691 -0.0530247 0.000119691 0.044244 -0.00105575 -0.049683 -2.40143e-05 -0.0246462 -0.091469 0.00179007 -0.0328677 0.0103158 0.00348491 -0.0962789 0.00243142 0.00149814 0.00245743 0.0310458 0.0534739 0.000213506 -0.0168047 -0.0339715 -0.0149385 -0.0277797 0.00470969
internal_weight=640.513 17.4858 623.028 5.93408 617.093 612.799 12.9906 599.808 15.5639 584.244 12.1386 572.106 39.2585 12.9605 532.847 24.8425 14.7783 508.005 10.0642 502.133 497.018 490.374 35.6886 29.6662 454.685 95.0224 68.3661 55.3284 49.2613 359.663
internal_count=2951 77 2874 44 2830 2814 81 2733 64 2669 71 2598 198 81 2400 119 64 2281 55 2257 2239 2200 150 119 2050 428 320 252 231 1622
is_linear=0
shrinkage=0.1


Tree=26
num_leaves=31
num_cat=0
split_feature=9 10 10 9 10 8 11 8 11 12 10 12 10 6 0 10 12 4 1 0 5 7 7 6 10 8 7 8 10 8
split_gain=1.78824 1.83955 4.53438 3.56365 6.87561 2.45382 6.43785 4.40115 5.57313 4.73173 4.22101 3.96561 3.8239 4.87994 4.31971 3.57609 3.52006 7.28573 6.59893 10.7299 10.0038 6.54126 6.38677 8.38668 4.94971 11.4258 11.3247 7.45164 8.277 7.27069
threshold=23241.549316500004 12751.738860500003 11089.0681886 11314.635460500001 13630.057280750001 28.384245214268564 -0.23143936746470123 30.605954680493642 -0.035074404014184442 59380.582750000009 6548.3865690000011 57424.465800000005 7395.8623527500013 635.38473723975778 72069.720000000016 4467.507882500001 71908.731000000014 101575.25956597769 96136.353342776609 90607.135000000009 67973.22557623063 -548.37123762891235 -457.54624981254091 -433.99892853421619 3150.0122137500007 22.024957018731978 -314.59622782092265 17.957425732119066 2316.4635597500005 24.673525053067937
decision_type=2 2 2 2 2 2 2 2 2 2 2 2 2 2 2 2 2 2 2 2 2 2 2 2 2 2 2 2 2 2
left_child=1 2 5 4 -3 12 -7 8 -8 -10 15 -9 16 -14 -15 -11 17 18 19 20 22 -21 -1 -24 27 26 -26 -18 29 -29
right_child=-2 3 -4 -5 -6 6 7 11 9 10 -12 -13 13 14 -16 -17 24 -19 -20 21 -22 -23 23 -25 25 -27 -28 28 -30 -31
leaf_value=-0.098223699564190289 0.06073196009336948 -0.093450988057508039 0.058696198312220171 -0.11632890202546711 0.077732888192812821 0.094267540291422328 -0.11908008594109576 0.088415167849510867 -0.10022435264730989 -0.014926477522615708 -0.073907209357046352 -0.0082909034167382833 0.063767477092316366 0.059278756008473668 -0.050881404788751167 0.087294410174963533 0.045747655994386148 0.086447978368903555 -0.065576856748377016 -0.028609498447916815 -0.10844820520143326 0.095184213038581184 0.083512540248298406 0.0015109491196738693 0.016646225113351426 0.014585581460590089 -0.10520861668509172 -0.13431375625178293 0.010056006245702208 0.036623230736521628
leaf_weight=5.7460047975182524 4.8063368052244178 4.4684092476963979 13.016174197196959 3.9913954734802237 4.9405177235603333 5.8517899066209784 7.8708233758807173 4.341821961104869 5.9965789318084743 7.6715066432952899 5.3497735187411299 181.45398067682981 22.475365824997425 5.6927595734596244 9.4997750818729383 6.1789108365774155 28.628965377807617 11.402564868330954 12.670213431119917 5.4098061472177532 8.1650449931621534 20.2303227186203 13.774540096521376 131.92288536578417 10.85504888743162 29.67012782394886 25.644682519137859 9.2023287713527662 26.954226821660995 3.410504922270774
leaf_count=34 22 24 51 21 19 23 47 20 30 38 28 880 91 21 49 22 121 42 61 23 45 69 53 596 46 127 145 61 126 16
internal_value=-3.4157e-05 -0.000495925 0.000297511 -0.0371522 -0.00356433 -0.000956679 -0.00924581 -0.0120135 -0.0456269 -0.022682 0.00153587 -0.006031 0.00392773 0.0341749 -0.00960355 0.030676 0.000612659 0.00872099 0.00424295 0.00901833 -0.000627803 0.069065 0.00518531 0.00926355 -0.0120189 -0.0315036 -0.0689689 0.00688697 -0.0212309 -0.0880925
internal_weight=637.293 632.487 619.087 13.4003 9.40893 606.07 224.715 218.863 33.0676 25.1968 19.2002 185.796 381.355 37.6679 15.1925 13.8504 343.687 209.321 197.919 185.249 159.608 25.6401 151.443 145.697 134.366 66.1699 36.4997 68.196 39.5671 12.6128
internal_count=2951 2929 2865 64 43 2814 1088 1065 165 118 88 900 1726 161 70 60 1565 923 881 820 728 92 683 649 642 318 191 324 203 77
is_linear=0
shrinkage=0.1


Tree=27
num_leaves=31
num_cat=0
split_feature=11 7 11 10 6 11 7 3 3 1 11 2 1 2 3 8 10 10 7 7 7 7 10 0 4 12 14 7 7 2
split_gain=1.64155 6.2485 5.60101 5.85975 4.80304 4.58844 5.37178 5.60749 5.00691 4.76332 7.60765 4.31485 6.94825 4.83177 4.85041 8.26837 5.67147 4.25533 6.84887 6.31803 4.21423 6.4914 4.28094 4.18863 9.59818 5.77954 5.70725 5.62804 4.38865 4.3582
threshold=0.12840537571200233 -418.36248515447329 0.11079178147360265 7592.9039232500008 1226.1626853162236 -0.11848124663865912 -504.4883186055817 51.074370631118121 59.953990364009755 87636.979106936182 0.055813344980626352 106100.47520804631 104872.8203543366 100687.24368800307 54.860390359018282 22.314141521964206 8158.3072820000007 4704.2927297500019 786.87657273726074 653.90717327559571 1176.2668124894446 1503.9791724734066 11089.0681886 72685.685000000012 68461.274828001522 68292.528000000006 67160.721800000014 416.07033363032946 974.33198016635959 60191.59732493636
decision_type=2 2 2 2 2 2 2 2 2 2 2 2 2 2 2 2 2 2 2 2 2 2 2 2 2 2 2 2 2 2
left_child=2 -2 3 4 -1 -5 7 9 -8 10 -7 12 13 14 15 -3 17 18 19 -16 -18 -22 -23 24 26 -25 27 -19 -27 -29
right_child=1 11 -4 5 -6 6 8 -9 -10 -11 -12 -13 -14 -15 16 -17 20 23 -20 -21 21 22 -24 25 -26 28 -28 29 -30 -31
leaf_value=-0.003816344672531332 -0.082914188794038779 -0.021765745795496932 0.041592080564223637 0.10951082507929032 -0.11025290505349117 0.062537120307981531 0.0721599749026864 -0.10643032849564626 -0.024348505250547634 -0.08793488989564488 -0.076762774504152254 -0.10167292357528211 0.10863165180006609 -0.10063644750437578 -0.019742660385491287 0.1071743005767978 -0.14150664603365273 0.080683155394325926 -0.078721337366092672 0.07822232326146919 0.054469544107294016 -0.15938007765636819 -0.023496719398839166 0.13655388401470372 -0.088821829544783681 -0.058456846884135188 0.13040151355495952 0.014534598801001247 0.058028520998343103 -0.11874309244922537
leaf_weight=359.97653467208147 10.575975790619848 9.7011964321136492 34.835277289152145 6.1543168872594824 4.2902275547385207 15.849285177886495 22.556146815419201 5.0919403284788123 7.0578260570764533 4.253996178507804 5.2091296613216391 4.3539338633418074 5.5984479486942282 5.0864983648061743 28.671690657734871 10.204725116491316 4.6400671601295498 6.2405094802379706 14.275994360446928 8.5453231483697873 5.4552736133337012 4.1015723794698697 5.333204373717308 6.1547685861587551 9.1155808344483358 4.7117525264620772 4.7539466097950926 5.9964534714817983 10.315127111971377 4.1526569500565529
leaf_count=1684 60 45 144 25 30 65 87 29 33 23 27 34 23 29 132 36 26 24 78 34 22 26 24 22 51 24 16 29 39 30
internal_value=-3.49708e-05 -0.00850834 0.00302429 -9.69868e-05 -0.00506992 0.027278 0.0188458 -0.0106797 0.0491593 0.00858183 0.0280791 -0.00350916 -0.000716702 -0.00486831 -0.00144677 0.0443351 -0.00888839 0.000485449 -0.0198366 0.00275088 -0.0582933 -0.0323622 -0.0825692 0.0208281 -0.00304635 0.0549341 0.0339338 0.00595259 0.021504 -0.0399979
internal_weight=633.259 167.985 465.275 430.439 364.267 66.1726 60.0183 30.4044 29.614 25.3124 21.0584 157.409 153.055 147.456 142.37 19.9059 122.464 102.934 51.493 37.217 19.5301 14.8901 9.43478 51.4408 30.2591 21.1816 21.1436 16.3896 15.0269 10.1491
internal_count=2951 804 2147 2003 1714 289 264 144 120 115 92 744 710 687 658 81 577 479 244 166 98 72 50 235 150 85 99 83 63 59
is_linear=0
shrinkage=0.1


Tree=28
num_leaves=31
num_cat=0
split_feature=0 4 4 4 8 4 2 5 2 10 10 9 10 0 2 5 9 12 8 16 9 3 7 8 7 4 5 14 14 4
split_gain=1.52706 3.05116 2.55998 2.91003 6.58058 2.2106 3.25435 2.22184 6.04674 2.35051 3.57282 4.24448 5.48905 4.04677 5.15977 4.03266 3.99132 3.74785 3.16165 3.42266 2.34127 2.4667 9.01309 5.24853 6.0667 4.99027 14.8433 8.63811 9.65021 6.35113
threshold=108729.22000000002 110852.52174788616 111326.79387649579 108206.75431850507 32.278603739157624 107210.36381448132 103094.40308050033 102226.30361346476 105903.58968248671 1974.9052485 2620.0840552500008 1431.0127150000001 4178.5738425000009 94593.35000000002 84018.829817472448 95963.431696801199 1513.4149200000004 73039.260000000024 14.588799837891065 1.0000000180025095e-35 1639.9097100000001 55.037549583987776 911.0494819928067 29.269180296389674 355.68846005366487 92164.770946408142 73748.24469889274 68580.814800000007 67160.721800000014 95808.90004610394
decision_type=2 2 2 2 2 2 2 2 2 2 2 2 2 2 2 2 2 2 2 2 2 2 2 2 2 2 2 2 2 2
left_child=2 -2 3 5 -5 7 -7 9 -9 -1 13 12 18 14 -11 -15 -13 20 -12 -20 -18 22 -22 -23 -25 26 27 28 -26 -27
right_child=1 -3 -4 4 -6 6 -8 8 -10 10 11 16 -14 15 -16 -17 17 -19 19 -21 21 23 -24 24 25 29 -28 -29 -30 -31
leaf_value=0.058452688901227706 0.02278959497827656 -0.12437778985623171 0.07738859534140545 -0.099054172227582504 0.051392239202246365 -0.018557540706696986 0.075186509962007028 -0.093271850696293401 0.061459724356182903 -0.074183109117470072 -0.087150320011606497 0.086206774902946495 -0.13904852916610039 -0.12241565892949023 0.060283261549842121 -0.0074604718252550273 -0.056764541481378855 0.087824840296352513 0.039554837515961477 -0.043456505415555319 0.0053304301518239533 0.0079979534926175305 0.10070329645069614 -0.10057979108418705 -0.021558496257047807 -0.14898883771990679 0.1495890830728408 -0.067736090276911784 0.10037905236671617 -0.020534017671507032
leaf_weight=6.9840633869171134 2.7777021154761306 2.8585598766803741 4.2933332324028006 8.4283317029476148 4.4384072273969641 6.1184580475091925 9.3811561316251737 7.8462009653449041 3.7244424149394035 4.8496741130948084 5.1417711675167146 5.8192769140005103 4.338105931878089 7.6249372959136945 6.9335050880908966 5.0879429578781128 6.6772647127509108 5.1467687189579001 10.63604312390089 9.3186873495578766 289.10511472821236 116.95168214291334 10.26054474711418 9.3725774437189084 21.227982476353649 5.6642882525920895 5.8800972253084174 20.863535009324551 9.3484576344490034 12.010323554277418
leaf_count=27 18 26 16 63 20 29 37 54 17 26 26 24 33 45 27 23 40 19 50 52 1300 507 36 49 119 33 21 120 34 60
internal_value=-3.19839e-05 -0.0518497 0.000436454 -9.71249e-05 -0.0471574 0.000901554 0.0381811 -7.6452e-05 -0.0434657 0.000790269 8.65349e-05 0.00175748 -0.0351819 -0.0372778 0.00494013 -0.0764083 0.00385518 0.00292011 -0.0172278 0.000789255 0.00205883 0.00284331 0.00859927 -0.00571592 -0.0247264 -0.0152465 -0.000922365 -0.0181273 0.0157228 -0.0617007
internal_weight=629.109 5.63626 623.473 619.18 12.8667 606.313 15.4996 590.813 11.5706 579.243 572.259 547.763 29.4346 24.4961 11.7832 12.7129 518.328 512.509 25.0965 19.9547 507.362 500.685 299.366 201.319 84.3673 74.9947 57.3201 51.44 30.5764 17.6746
internal_count=2951 44 2907 2891 83 2808 66 2742 71 2671 2644 2523 161 121 53 68 2362 2338 128 102 2319 2279 1336 943 436 387 294 273 153 93
is_linear=0
shrinkage=0.1


Tree=29
num_leaves=31
num_cat=0
split_feature=15 9 13 10 13 11 8 13 9 8 9 10 10 10 10 3 9 7 1 1 7 7 8 0 1 2 8 8 6 7
split_gain=1.51552 4.95186 3.50038 2.88361 2.16408 2.74529 4.46133 5.23084 2.84037 2.65668 2.61165 2.03743 4.0712 2.48085 4.78322 6.98607 4.08615 3.9533 3.64491 5.76114 3.39058 3.50994 5.45231 2.68938 11.6296 9.97849 6.94117 8.17252 6.77993 11.5863
